{"learner":{"attributes":{"scikit_learn":"{\"_estimator_type\": \"regressor\"}"},"feature_names":[],"feature_types":[],"gradient_booster":{"model":{"cats":{"enc":[],"feature_segments":[],"sorted_idx":[]},"gbtree_model_param":{"num_parallel_tree":"1","num_trees":"1000"},"iteration_indptr":[0,1,2,3,4,5,6,7,8,9,10,11,12,13,14,15,16,17,18,19,20,21,22,23,24,25,26,27,28,29,30,31,32,33,34,35,36,37,38,39,40,41,42,43,44,45,46,47,48,49,50,51,52,53,54,55,56,57,58,59,60,61,62,63,64,65,66,67,68,69,70,71,72,73,74,75,76,77,78,79,80,81,82,83,84,85,86,87,88,89,90,91,92,93,94,95,96,97,98,99,100,101,102,103,104,105,106,107,108,109,110,111,112,113,114,115,116,117,118,119,120,121,122,123,124,125,126,127,128,129,130,131,132,133,134,135,136,137,138,139,140,141,142,143,144,145,146,147,148,149,150,151,152,153,154,155,156,157,158,159,160,161,162,163,164,165,166,167,168,169,170,171,172,173,174,175,176,177,178,179,180,181,182,183,184,185,186,187,188,189,190,191,192,193,194,195,196,197,198,199,200,201,202,203,204,205,206,207,208,209,210,211,212,213,214,215,216,217,218,219,220,221,222,223,224,225,226,227,228,229,230,231,232,233,234,235,236,237,238,239,240,241,242,243,244,245,246,247,248,249,250,251,252,253,254,255,256,257,258,259,260,261,262,263,264,265,266,267,268,269,270,271,272,273,274,275,276,277,278,279,280,281,282,283,284,285,286,287,288,289,290,291,292,293,294,295,296,297,298,299,300,301,302,303,304,305,306,307,308,309,310,311,312,313,314,315,316,317,318,319,320,321,322,323,324,325,326,327,328,329,330,331,332,333,334,335,336,337,338,339,340,341,342,343,344,345,346,347,348,349,350,351,352,353,354,355,356,357,358,359,360,361,362,363,364,365,366,367,368,369,370,371,372,373,374,375,376,377,378,379,380,381,382,383,384,385,386,387,388,389,390,391,392,393,394,395,396,397,398,399,400,401,402,403,404,405,406,407,408,409,410,411,412,413,414,415,416,417,418,419,420,421,422,423,424,425,426,427,428,429,430,431,432,433,434,435,436,437,438,439,440,441,442,443,444,445,446,447,448,449,450,451,452,453,454,455,456,457,458,459,460,461,462,463,464,465,466,467,468,469,470,471,472,473,474,475,476,477,478,479,480,481,482,483,484,485,486,487,488,489,490,491,492,493,494,495,496,497,498,499,500,501,502,503,504,505,506,507,508,509,510,511,512,513,514,515,516,517,518,519,520,521,522,523,524,525,526,527,528,529,530,531,532,533,534,535,536,537,538,539,540,541,542,543,544,545,546,547,548,549,550,551,552,553,554,555,556,557,558,559,560,561,562,563,564,565,566,567,568,569,570,571,572,573,574,575,576,577,578,579,580,581,582,583,584,585,586,587,588,589,590,591,592,593,594,595,596,597,598,599,600,601,602,603,604,605,606,607,608,609,610,611,612,613,614,615,616,617,618,619,620,621,622,623,624,625,626,627,628,629,630,631,632,633,634,635,636,637,638,639,640,641,642,643,644,645,646,647,648,649,650,651,652,653,654,655,656,657,658,659,660,661,662,663,664,665,666,667,668,669,670,671,672,673,674,675,676,677,678,679,680,681,682,683,684,685,686,687,688,689,690,691,692,693,694,695,696,697,698,699,700,701,702,703,704,705,706,707,708,709,710,711,712,713,714,715,716,717,718,719,720,721,722,723,724,725,726,727,728,729,730,731,732,733,734,735,736,737,738,739,740,741,742,743,744,745,746,747,748,749,750,751,752,753,754,755,756,757,758,759,760,761,762,763,764,765,766,767,768,769,770,771,772,773,774,775,776,777,778,779,780,781,782,783,784,785,786,787,788,789,790,791,792,793,794,795,796,797,798,799,800,801,802,803,804,805,806,807,808,809,810,811,812,813,814,815,816,817,818,819,820,821,822,823,824,825,826,827,828,829,830,831,832,833,834,835,836,837,838,839,840,841,842,843,844,845,846,847,848,849,850,851,852,853,854,855,856,857,858,859,860,861,862,863,864,865,866,867,868,869,870,871,872,873,874,875,876,877,878,879,880,881,882,883,884,885,886,887,888,889,890,891,892,893,894,895,896,897,898,899,900,901,902,903,904,905,906,907,908,909,910,911,912,913,914,915,916,917,918,919,920,921,922,923,924,925,926,927,928,929,930,931,932,933,934,935,936,937,938,939,940,941,942,943,944,945,946,947,948,949,950,951,952,953,954,955,956,957,958,959,960,961,962,963,964,965,966,967,968,969,970,971,972,973,974,975,976,977,978,979,980,981,982,983,984,985,986,987,988,989,990,991,992,993,994,995,996,997,998,999,1000],"tree_info":[0,0,0,0,0,0,0,0,0,0,0,0,0,0,0,0,0,0,0,0,0,0,0,0,0,0,0,0,0,0,0,0,0,0,0,0,0,0,0,0,0,0,0,0,0,0,0,0,0,0,0,0,0,0,0,0,0,0,0,0,0,0,0,0,0,0,0,0,0,0,0,0,0,0,0,0,0,0,0,0,0,0,0,0,0,0,0,0,0,0,0,0,0,0,0,0,0,0,0,0,0,0,0,0,0,0,0,0,0,0,0,0,0,0,0,0,0,0,0,0,0,0,0,0,0,0,0,0,0,0,0,0,0,0,0,0,0,0,0,0,0,0,0,0,0,0,0,0,0,0,0,0,0,0,0,0,0,0,0,0,0,0,0,0,0,0,0,0,0,0,0,0,0,0,0,0,0,0,0,0,0,0,0,0,0,0,0,0,0,0,0,0,0,0,0,0,0,0,0,0,0,0,0,0,0,0,0,0,0,0,0,0,0,0,0,0,0,0,0,0,0,0,0,0,0,0,0,0,0,0,0,0,0,0,0,0,0,0,0,0,0,0,0,0,0,0,0,0,0,0,0,0,0,0,0,0,0,0,0,0,0,0,0,0,0,0,0,0,0,0,0,0,0,0,0,0,0,0,0,0,0,0,0,0,0,0,0,0,0,0,0,0,0,0,0,0,0,0,0,0,0,0,0,0,0,0,0,0,0,0,0,0,0,0,0,0,0,0,0,0,0,0,0,0,0,0,0,0,0,0,0,0,0,0,0,0,0,0,0,0,0,0,0,0,0,0,0,0,0,0,0,0,0,0,0,0,0,0,0,0,0,0,0,0,0,0,0,0,0,0,0,0,0,0,0,0,0,0,0,0,0,0,0,0,0,0,0,0,0,0,0,0,0,0,0,0,0,0,0,0,0,0,0,0,0,0,0,0,0,0,0,0,0,0,0,0,0,0,0,0,0,0,0,0,0,0,0,0,0,0,0,0,0,0,0,0,0,0,0,0,0,0,0,0,0,0,0,0,0,0,0,0,0,0,0,0,0,0,0,0,0,0,0,0,0,0,0,0,0,0,0,0,0,0,0,0,0,0,0,0,0,0,0,0,0,0,0,0,0,0,0,0,0,0,0,0,0,0,0,0,0,0,0,0,0,0,0,0,0,0,0,0,0,0,0,0,0,0,0,0,0,0,0,0,0,0,0,0,0,0,0,0,0,0,0,0,0,0,0,0,0,0,0,0,0,0,0,0,0,0,0,0,0,0,0,0,0,0,0,0,0,0,0,0,0,0,0,0,0,0,0,0,0,0,0,0,0,0,0,0,0,0,0,0,0,0,0,0,0,0,0,0,0,0,0,0,0,0,0,0,0,0,0,0,0,0,0,0,0,0,0,0,0,0,0,0,0,0,0,0,0,0,0,0,0,0,0,0,0,0,0,0,0,0,0,0,0,0,0,0,0,0,0,0,0,0,0,0,0,0,0,0,0,0,0,0,0,0,0,0,0,0,0,0,0,0,0,0,0,0,0,0,0,0,0,0,0,0,0,0,0,0,0,0,0,0,0,0,0,0,0,0,0,0,0,0,0,0,0,0,0,0,0,0,0,0,0,0,0,0,0,0,0,0,0,0,0,0,0,0,0,0,0,0,0,0,0,0,0,0,0,0,0,0,0,0,0,0,0,0,0,0,0,0,0,0,0,0,0,0,0,0,0,0,0,0,0,0,0,0,0,0,0,0,0,0,0,0,0,0,0,0,0,0,0,0,0,0,0,0,0,0,0,0,0,0,0,0,0,0,0,0,0,0,0,0,0,0,0,0,0,0,0,0,0,0,0,0,0,0,0,0,0,0,0,0,0,0,0,0,0,0,0,0,0,0,0,0,0,0,0,0,0,0,0,0,0,0,0,0,0,0,0,0,0,0,0,0,0,0,0,0,0,0,0,0,0,0,0,0,0,0,0,0,0,0,0,0,0,0,0,0,0,0,0,0,0,0,0,0,0,0,0,0,0,0,0,0,0,0,0,0,0,0,0,0,0,0,0,0,0,0,0,0,0,0,0,0,0,0,0,0,0,0,0,0,0,0,0,0,0,0,0,0,0,0,0,0,0,0,0,0,0,0,0,0,0,0,0,0,0,0,0,0,0,0,0,0,0,0,0,0,0,0,0,0,0,0,0,0,0,0,0,0,0,0,0,0,0,0,0,0,0,0,0,0,0,0,0,0,0,0,0,0,0,0,0,0,0,0,0,0,0,0,0,0,0,0,0,0],"trees":[{"base_weights":[-1.759389E-2,2.2452095E1,-2.3939005E1,2.8729824E1,9.754502E0,-1.59559355E1,-5.3499046E1,3.0702286E1,2.3377323E1,1.4828895E1,2.0381541E0,-2.6344824E0,-2.3844915E1,-3.3738354E1,-6.2854115E1,6.300261E-1,5.714967E-1,4.7534713E-1,1.3592394E-1,4.5703262E-1,2.1514048E-1,2.1407215E-1,-2.7052176E-1,9.250179E-2,-1.0858787E0,-8.9814335E-1,-2.5576863E-1,-4.3098018E-1,-1.4469813E0,-1.0471702E0,-1.3872819E0],"categories":[],"categories_nodes":[],"categories_segments":[],"categories_sizes":[],"default_left":[0,0,0,0,0,0,0,0,0,0,0,0,0,0,0,0,0,0,0,0,0,0,0,0,0,0,0,0,0,0,0],"id":0,"left_children":[1,3,5,7,9,11,13,15,17,19,21,23,25,27,29,-1,-1,-1,-1,-1,-1,-1,-1,-1,-1,-1,-1,-1,-1,-1,-1],"loss_changes":[2.9577918E7,2.261549E6,6.288717E6,1.99739E5,3.6760356E5,2.205517E6,1.045495E6,2.2679E4,3.293125E4,1.8478312E5,5.0267494E5,2.9280758E6,3.0689435E6,8.564165E5,2.59083E5,0E0,0E0,0E0,0E0,0E0,0E0,0E0,0E0,0E0,0E0,0E0,0E0,0E0,0E0,0E0,0E0],"parents":[2147483647,0,0,1,1,2,2,3,3,4,4,5,5,6,6,7,7,8,8,9,9,10,10,11,11,12,12,13,13,14,14],"right_children":[2,4,6,8,10,12,14,16,18,20,22,24,26,28,30,-1,-1,-1,-1,-1,-1,-1,-1,-1,-1,-1,-1,-1,-1,-1,-1],"split_conditions":[2.3431735E-1,1.5682657E-1,7.0640063E-1,1.1439114E-1,5.859019E-1,2.4904527E-1,3.5858482E-1,8.302583E-2,9.989028E-1,3.8704172E-1,3.4617335E-1,9.512212E-1,4.791443E-1,7.7571076E-1,7.300168E-1,6.300261E-1,5.714967E-1,4.7534713E-1,1.3592394E-1,4.5703262E-1,2.1514048E-1,2.1407215E-1,-2.7052176E-1,9.250179E-2,-1.0858787E0,-8.9814335E-1,-2.5576863E-1,-4.3098018E-1,-1.4469813E0,-1.0471702E0,-1.3872819E0],"split_indices":[42,42,23,42,20,2,36,42,4,24,24,10,13,23,23,0,0,0,0,0,0,0,0,0,0,0,0,0,0,0,0],"split_type":[0,0,0,0,0,0,0,0,0,0,0,0,0,0,0,0,0,0,0,0,0,0,0,0,0,0,0,0,0,0,0],"sum_hessian":[5.5026E4,2.8374E4,2.6652E4,1.8986E4,9.388E3,2.0986E4,5.666E3,1.387E4,5.116E3,5.663E3,3.725E3,7.806E3,1.318E4,1.822E3,3.844E3,1.0073E4,3.797E3,4.998E3,1.18E2,1.905E3,3.758E3,2.393E3,1.332E3,6.845E3,9.61E2,4.536E3,8.644E3,1.386E3,4.36E2,1.475E3,2.369E3],"tree_param":{"num_deleted":"0","num_feature":"43","num_nodes":"31","size_leaf_vector":"1"}},{"base_weights":[6.9915794E-2,2.2023771E1,-2.347053E1,2.7966888E1,9.118022E0,-1.0089704E1,-5.6740597E1,2.9960972E1,2.239359E1,1.1934979E1,-5.9386673E0,-9.144738E-1,-3.0598055E1,-2.7319834E1,-6.2142033E1,6.171036E-1,5.566586E-1,4.596539E-1,2.1016157E-1,3.2767966E-1,5.9831813E-2,3.4148477E-2,-6.210699E-1,8.101897E-2,-9.7720665E-1,9.480483E-2,-9.776236E-1,-3.8944176E-1,-9.27419E-1,-1.0732644E0,-1.438985E0],"categories":[],"categories_nodes":[],"categories_segments":[],"categories_sizes":[],"default_left":[0,0,0,0,0,0,0,0,0,0,0,0,0,0,0,0,0,0,0,0,0,0,0,0,0,0,0,0,0,0,0],"id":1,"left_children":[1,3,5,7,9,11,13,15,17,19,21,23,25,27,29,-1,-1,-1,-1,-1,-1,-1,-1,-1,-1,-1,-1,-1,-1,-1,-1],"loss_changes":[2.8482076E7,2.187011E6,1.1839015E7,2.16321E5,3.8150044E5,3.5691585E6,1.2105E6,2.65E4,3.581075E4,3.0139388E5,2.7235197E5,3.1203622E6,3.788284E6,1.7626444E5,5.31984E5,0E0,0E0,0E0,0E0,0E0,0E0,0E0,0E0,0E0,0E0,0E0,0E0,0E0,0E0,0E0,0E0],"parents":[2147483647,0,0,1,1,2,2,3,3,4,4,5,5,6,6,7,7,8,8,9,9,10,10,11,11,12,12,13,13,14,14],"right_children":[2,4,6,8,10,12,14,16,18,20,22,24,26,28,30,-1,-1,-1,-1,-1,-1,-1,-1,-1,-1,-1,-1,-1,-1,-1,-1],"split_conditions":[2.3431735E-1,1.605166E-1,9.938554E-1,1.1808118E-1,9.9357986E-1,4.14689E-1,4.943182E-1,8.302583E-2,9.24513E-1,4.078046E-1,7.7353895E-1,9.375E-1,5.9253246E-2,3.213396E-1,9.943789E-1,6.171036E-1,5.566586E-1,4.596539E-1,2.1016157E-1,3.2767966E-1,5.9831813E-2,3.4148477E-2,-6.210699E-1,8.101897E-2,-9.7720665E-1,9.480483E-2,-9.776236E-1,-3.8944176E-1,-9.27419E-1,-1.0732644E0,-1.438985E0],"split_indices":[42,42,8,42,8,10,6,42,6,10,6,6,6,5,8,0,0,0,0,0,0,0,0,0,0,0,0,0,0,0,0],"split_type":[0,0,0,0,0,0,0,0,0,0,0,0,0,0,0,0,0,0,0,0,0,0,0,0,0,0,0,0,0,0,0],"sum_hessian":[5.511E4,2.8516E4,2.6594E4,1.9524E4,8.992E3,1.8967E4,7.627E3,1.4376E4,5.148E3,7.575E3,1.417E3,1.3105E4,5.862E3,1.184E3,6.443E3,1.0113E4,4.263E3,4.904E3,2.44E2,5.058E3,2.517E3,1.087E3,3.3E2,1.1876E4,1.229E3,1.999E3,3.863E3,8.4E2,3.44E2,3.459E3,2.984E3],"tree_param":{"num_deleted":"0","num_feature":"43","num_nodes":"31","size_leaf_vector":"1"}},{"base_weights":[-1.6349289E-1,2.1720608E1,-2.2960169E1,2.7272772E1,8.807481E0,-8.991643E0,-5.3479256E1,2.9367552E1,2.1746668E1,1.4153527E1,9.034772E-1,-2.6838795E1,-2.2370968E0,-4.2774208E1,-6.6755684E1,6.0509396E-1,5.4535455E-1,4.6953863E-1,3.624073E-1,4.4173518E-1,2.0388998E-1,1.553946E-1,-3.839593E-1,3.2531805E-2,-9.111207E-1,2.6645826E-2,-1.060488E0,-6.8140465E-1,-1.2949512E0,-9.8920536E-1,-1.4026233E0],"categories":[],"categories_nodes":[],"categories_segments":[],"categories_sizes":[],"default_left":[0,0,0,0,0,0,0,0,0,0,0,0,0,0,0,0,0,0,0,0,0,0,0,0,0,0,0,0,0,0,0],"id":2,"left_children":[1,3,5,7,9,11,13,15,17,19,21,23,25,27,29,-1,-1,-1,-1,-1,-1,-1,-1,-1,-1,-1,-1,-1,-1,-1,-1],"loss_changes":[2.7454626E7,2.012834E6,1.1490191E7,2.26656E5,3.567898E5,2.2291395E6,1.199946E6,2.5693E4,3.3463E4,1.5797638E5,4.7052675E5,2.7050672E6,2.4321178E6,8.94399E5,2.16978E5,0E0,0E0,0E0,0E0,0E0,0E0,0E0,0E0,0E0,0E0,0E0,0E0,0E0,0E0,0E0,0E0],"parents":[2147483647,0,0,1,1,2,2,3,3,4,4,5,5,6,6,7,7,8,8,9,9,10,10,11,11,12,12,13,13,14,14],"right_children":[2,4,6,8,10,12,14,16,18,20,22,24,26,28,30,-1,-1,-1,-1,-1,-1,-1,-1,-1,-1,-1,-1,-1,-1,-1,-1],"split_conditions":[2.3247233E-1,1.6236162E-1,9.938003E-1,1.1808118E-1,5.859019E-1,6.2704676E-1,9.9429625E-1,8.302583E-2,5.9343255E-1,3.8704172E-1,3.5871574E-1,5.831632E-2,9.334214E-1,7.023178E-1,2.6364836E-1,6.0509396E-1,5.4535455E-1,4.6953863E-1,3.624073E-1,4.4173518E-1,2.0388998E-1,1.553946E-1,-3.839593E-1,3.2531805E-2,-9.111207E-1,2.6645826E-2,-1.060488E0,-6.8140465E-1,-1.2949512E0,-9.8920536E-1,-1.4026233E0],"split_indices":[42,42,8,42,20,4,8,42,20,24,24,2,2,2,2,0,0,0,0,0,0,0,0,0,0,0,0,0,0,0,0],"split_type":[0,0,0,0,0,0,0,0,0,0,0,0,0,0,0,0,0,0,0,0,0,0,0,0,0,0,0,0,0,0,0],"sum_hessian":[5.503E4,2.8077E4,2.6953E4,1.9634E4,8.443E3,1.8491E4,8.462E3,1.4234E4,5.4E3,5.036E3,3.407E3,5.076E3,1.3415E4,4.687E3,3.775E3,9.997E3,4.237E3,3.652E3,1.748E3,1.675E3,3.361E3,2.54E3,8.67E2,2.014E3,3.062E3,1.2535E4,8.8E2,3.359E3,1.328E3,6.19E2,3.156E3],"tree_param":{"num_deleted":"0","num_feature":"43","num_nodes":"31","size_leaf_vector":"1"}},{"base_weights":[1.2015958E-3,2.1561583E1,-2.226977E1,2.7131128E1,1.0145884E1,-9.51649E0,-5.458504E1,2.903683E1,2.2612167E1,1.2542558E1,-3.654363E0,-7.6140004E-1,-2.927806E1,-3.4984848E1,-6.116357E1,5.9515816E-1,5.4773587E-1,5.176803E-1,4.2136085E-1,3.293061E-1,9.153482E-2,7.921406E-2,-4.9754557E-1,2.872226E-1,-3.2531834E-1,5.16653E-2,-8.913037E-1,-4.485707E-1,-9.935863E-1,-1.0713375E0,-1.4234916E0],"categories":[],"categories_nodes":[],"categories_segments":[],"categories_sizes":[],"default_left":[0,0,0,0,0,0,0,0,0,0,0,0,0,0,0,0,0,0,0,0,0,0,0,0,0,0,0,0,0,0,0],"id":3,"left_children":[1,3,5,7,9,11,13,15,17,19,21,23,25,27,29,-1,-1,-1,-1,-1,-1,-1,-1,-1,-1,-1,-1,-1,-1,-1,-1],"loss_changes":[2.6449238E7,1.779209E6,1.1166025E7,1.61331E5,3.0363856E5,3.3614735E6,9.86448E5,1.4924E4,2.766575E4,2.4431425E5,2.1973183E5,3.1573388E6,2.9054755E6,3.5480225E5,4.32642E5,0E0,0E0,0E0,0E0,0E0,0E0,0E0,0E0,0E0,0E0,0E0,0E0,0E0,0E0,0E0,0E0],"parents":[2147483647,0,0,1,1,2,2,3,3,4,4,5,5,6,6,7,7,8,8,9,9,10,10,11,11,12,12,13,13,14,14],"right_children":[2,4,6,8,10,12,14,16,18,20,22,24,26,28,30,-1,-1,-1,-1,-1,-1,-1,-1,-1,-1,-1,-1,-1,-1,-1,-1],"split_conditions":[2.3062731E-1,1.5498155E-1,9.938554E-1,1.0885609E-1,9.9357986E-1,4.14689E-1,2.6465714E-1,7.564576E-2,4.0779814E-1,4.078046E-1,6.904047E-1,9.9346966E-1,5.6995317E-2,6.272874E-1,9.944616E-1,5.9515816E-1,5.4773587E-1,5.176803E-1,4.2136085E-1,3.293061E-1,9.153482E-2,7.921406E-2,-4.9754557E-1,2.872226E-1,-3.2531834E-1,5.16653E-2,-8.913037E-1,-4.485707E-1,-9.935863E-1,-1.0713375E0,-1.4234916E0],"split_indices":[42,42,8,42,8,10,2,42,16,10,2,8,2,9,8,0,0,0,0,0,0,0,0,0,0,0,0,0,0,0,0],"split_type":[0,0,0,0,0,0,0,0,0,0,0,0,0,0,0,0,0,0,0,0,0,0,0,0,0,0,0,0,0,0,0],"sum_hessian":[5.5081E4,2.7987E4,2.7094E4,1.8809E4,9.178E3,1.9428E4,7.666E3,1.3226E4,5.583E3,7.82E3,1.358E3,1.3464E4,5.964E3,1.928E3,5.738E3,9.192E3,4.034E3,1.785E3,3.798E3,5.239E3,2.581E3,1E3,3.58E2,6.816E3,6.648E3,1.934E3,4.03E3,1.041E3,8.87E2,3.266E3,2.472E3],"tree_param":{"num_deleted":"0","num_feature":"43","num_nodes":"31","size_leaf_vector":"1"}},{"base_weights":[-6.127282E-2,2.0606361E1,-2.241227E1,2.6700283E1,9.41816E0,-9.668939E0,-5.3699306E1,2.847995E1,2.2342196E1,1.1953273E1,-4.678309E0,-8.032383E-1,-2.9528519E1,-3.4362946E1,-5.978951E1,5.817675E-1,5.3402275E-1,5.0992936E-1,4.1730982E-1,3.2181847E-1,7.089795E-2,5.3815186E-2,-5.0025433E-1,2.5514925E-1,-3.447351E-1,2.5666125E-2,-8.9917266E-1,-4.7430372E-1,-1.0275573E0,-8.5984695E-1,-1.2851541E0],"categories":[],"categories_nodes":[],"categories_segments":[],"categories_sizes":[],"default_left":[0,0,0,0,0,0,0,0,0,0,0,0,0,0,0,0,0,0,0,0,0,0,0,0,0,0,0,0,0,0,0],"id":4,"left_children":[1,3,5,7,9,11,13,15,17,19,21,23,25,27,29,-1,-1,-1,-1,-1,-1,-1,-1,-1,-1,-1,-1,-1,-1,-1,-1],"loss_changes":[2.5475188E7,1.953311E6,1.0563066E7,1.43228E5,3.611697E5,3.315005E6,9.00948E5,1.3474E4,2.45415E4,2.9792725E5,2.3097944E5,2.9012815E6,2.7627815E6,3.319545E5,4.34796E5,0E0,0E0,0E0,0E0,0E0,0E0,0E0,0E0,0E0,0E0,0E0,0E0,0E0,0E0,0E0,0E0],"parents":[2147483647,0,0,1,1,2,2,3,3,4,4,5,5,6,6,7,7,8,8,9,9,10,10,11,11,12,12,13,13,14,14],"right_children":[2,4,6,8,10,12,14,16,18,20,22,24,26,28,30,-1,-1,-1,-1,-1,-1,-1,-1,-1,-1,-1,-1,-1,-1,-1,-1],"split_conditions":[2.3616236E-1,1.5313654E-1,9.938554E-1,1.0885609E-1,9.9357986E-1,4.14689E-1,2.6364836E-1,8.118081E-2,4.0779814E-1,4.078046E-1,6.904047E-1,9.934972E-1,5.831632E-2,6.349821E-1,5.971337E-1,5.817675E-1,5.3402275E-1,5.0992936E-1,4.1730982E-1,3.2181847E-1,7.089795E-2,5.3815186E-2,-5.0025433E-1,2.5514925E-1,-3.447351E-1,2.5666125E-2,-8.9917266E-1,-4.7430372E-1,-1.0275573E0,-8.5984695E-1,-1.2851541E0],"split_indices":[42,42,8,42,8,10,2,42,16,10,2,8,2,9,9,0,0,0,0,0,0,0,0,0,0,0,0,0,0,0,0],"split_type":[0,0,0,0,0,0,0,0,0,0,0,0,0,0,0,0,0,0,0,0,0,0,0,0,0,0,0,0,0,0,0],"sum_hessian":[5.5146E4,2.8652E4,2.6494E4,1.8548E4,1.0104E4,1.8827E4,7.667E3,1.3166E4,5.382E3,8.564E3,1.54E3,1.3017E4,5.81E3,1.838E3,5.829E3,9.799E3,3.367E3,1.711E3,3.671E3,5.739E3,2.825E3,1.131E3,4.09E2,7.132E3,5.885E3,1.939E3,3.871E3,1.132E3,7.06E2,1.227E3,4.602E3],"tree_param":{"num_deleted":"0","num_feature":"43","num_nodes":"31","size_leaf_vector":"1"}},{"base_weights":[5.835269E-2,2.0725779E1,-2.132795E1,2.573646E1,8.752242E0,-8.232346E0,-5.0247337E1,2.761074E1,2.0425913E1,1.3910365E1,1.0061786E0,-2.51451E1,-1.854982E0,-2.150628E1,-5.6034992E1,5.688093E-1,5.117576E-1,4.203207E-1,1.6782503E-1,4.0716192E-1,1.9243228E-1,1.8740249E-1,-2.8681037E-1,3.5287462E-2,-9.721057E-1,4.5057334E-2,-9.058552E-1,-2.976844E-1,-8.4754944E-1,-9.6202934E-1,-1.3336853E0],"categories":[],"categories_nodes":[],"categories_segments":[],"categories_sizes":[],"default_left":[0,0,0,0,0,0,0,0,0,0,0,0,0,0,0,0,0,0,0,0,0,0,0,0,0,0,0,0,0,0,0],"id":5,"left_children":[1,3,5,7,9,11,13,15,17,19,21,23,25,27,29,-1,-1,-1,-1,-1,-1,-1,-1,-1,-1,-1,-1,-1,-1,-1,-1],"loss_changes":[2.438292E7,1.68289E6,1.026698E7,1.96285E5,3.307348E5,2.0128139E6,1.404396E6,2.3803E4,3.6491E4,1.3721044E5,4.2500247E5,3.226035E6,2.4184425E6,1.9535144E5,5.90984E5,0E0,0E0,0E0,0E0,0E0,0E0,0E0,0E0,0E0,0E0,0E0,0E0,0E0,0E0,0E0,0E0],"parents":[2147483647,0,0,1,1,2,2,3,3,4,4,5,5,6,6,7,7,8,8,9,9,10,10,11,11,12,12,13,13,14,14],"right_children":[2,4,6,8,10,12,14,16,18,20,22,24,26,28,30,-1,-1,-1,-1,-1,-1,-1,-1,-1,-1,-1,-1,-1,-1,-1,-1],"split_conditions":[2.3062731E-1,1.6236162E-1,9.938003E-1,1.199262E-1,5.859019E-1,6.2704676E-1,4.943182E-1,8.4870845E-2,9.24513E-1,3.9405435E-1,3.4678674E-1,6.412338E-2,9.375E-1,3.213396E-1,9.943789E-1,5.688093E-1,5.117576E-1,4.203207E-1,1.6782503E-1,4.0716192E-1,1.9243228E-1,1.8740249E-1,-2.8681037E-1,3.5287462E-2,-9.721057E-1,4.5057334E-2,-9.058552E-1,-2.976844E-1,-8.4754944E-1,-9.6202934E-1,-1.3336853E0],"split_indices":[42,42,8,42,20,4,6,42,6,24,24,6,6,5,8,0,0,0,0,0,0,0,0,0,0,0,0,0,0,0,0],"split_type":[0,0,0,0,0,0,0,0,0,0,0,0,0,0,0,0,0,0,0,0,0,0,0,0,0,0,0,0,0,0,0],"sum_hessian":[5.5163E4,2.8053E4,2.711E4,1.9776E4,8.277E3,1.8661E4,8.449E3,1.4614E4,5.162E3,4.968E3,3.309E3,5.109E3,1.3552E4,1.417E3,7.032E3,1.0354E4,4.26E3,4.92E3,2.42E2,1.983E3,2.985E3,2.142E3,1.167E3,2.38E3,2.729E3,1.2382E4,1.17E3,1.077E3,3.4E2,4.033E3,2.999E3],"tree_param":{"num_deleted":"0","num_feature":"43","num_nodes":"31","size_leaf_vector":"1"}},{"base_weights":[-1.5045072E-2,9.263953E0,-4.4094887E1,1.074565E1,-5.149005E1,-6.0052423E0,-5.2144424E1,1.1926975E1,-4.8849888E1,-2.506039E1,-6.4005554E1,-2.1879948E1,5.2151213E0,-4.2282616E1,-6.2562065E1,3.2108325E-1,-1.5092105E-2,-1.2779849E0,-6.557686E-1,-3.7047118E-1,-1.0188618E0,-1.0637015E0,-1.4586947E0,-1.6223453E-1,-6.5112E-1,2.4302083E-1,-6.538593E-1,-6.794657E-1,-1.2257451E0,-9.861691E-1,-1.2989851E0],"categories":[],"categories_nodes":[],"categories_segments":[],"categories_sizes":[],"default_left":[0,0,0,0,0,0,0,0,0,0,0,0,0,0,0,0,0,0,0,0,0,0,0,0,0,0,0,0,0,0,0],"id":6,"left_children":[1,3,5,7,9,11,13,15,17,19,21,23,25,27,29,-1,-1,-1,-1,-1,-1,-1,-1,-1,-1,-1,-1,-1,-1,-1,-1],"loss_changes":[2.253969E7,4.0985788E6,2.937872E6,3.1293055E6,3.56962E5,2.9810884E5,8.10104E5,2.2808515E6,2.0674612E5,5.8273156E4,6.7135E4,1.01600125E5,2.5832911E5,6.401615E5,1.18449E5,0E0,0E0,0E0,0E0,0E0,0E0,0E0,0E0,0E0,0E0,0E0,0E0,0E0,0E0,0E0,0E0],"parents":[2147483647,0,0,1,1,2,2,3,3,4,4,5,5,6,6,7,7,8,8,9,9,10,10,11,11,12,12,13,13,14,14],"right_children":[2,4,6,8,10,12,14,16,18,20,22,24,26,28,30,-1,-1,-1,-1,-1,-1,-1,-1,-1,-1,-1,-1,-1,-1,-1,-1],"split_conditions":[9.9377275E-1,9.5651424E-1,4.8944804E-1,9.4724023E-1,7.467532E-2,3.7528542E-1,9.942412E-1,4.14689E-1,9.5896673E-1,2.8656453E-3,9.695911E-1,5.7909924E-1,9.943789E-1,7.8896105E-1,6.063193E-1,3.2108325E-1,-1.5092105E-2,-1.2779849E0,-6.557686E-1,-3.7047118E-1,-1.0188618E0,-1.0637015E0,-1.4586947E0,-1.6223453E-1,-6.5112E-1,2.4302083E-1,-6.538593E-1,-6.794657E-1,-1.2257451E0,-9.861691E-1,-1.2989851E0],"split_indices":[8,10,6,6,6,10,8,10,7,8,10,9,8,6,9,0,0,0,0,0,0,0,0,0,0,0,0,0,0,0,0],"split_type":[0,0,0,0,0,0,0,0,0,0,0,0,0,0,0,0,0,0,0,0,0,0,0,0,0,0,0,0,0,0,0],"sum_hessian":[5.5105E4,4.5523E4,9.582E3,4.444E4,1.083E3,1.672E3,7.91E3,4.3577E4,8.63E2,3.49E2,7.34E2,6.92E2,9.8E2,4.066E3,3.844E3,3.2877E4,1.07E4,4.44E2,4.19E2,2.8E2,6.9E1,3.35E2,3.99E2,3.03E2,3.89E2,8.29E2,1.51E2,2.831E3,1.235E3,5.9E2,3.254E3],"tree_param":{"num_deleted":"0","num_feature":"43","num_nodes":"31","size_leaf_vector":"1"}},{"base_weights":[1.1299782E-2,1.9390488E1,-2.131038E1,2.4628414E1,6.8368797E0,-1.4193671E1,-4.7319233E1,2.6681599E1,1.886533E1,1.0732608E1,-5.157846E0,-8.806631E-1,-2.208641E1,-3.0150011E1,-5.537944E1,5.5151635E-1,4.9124613E-1,4.5355138E-1,3.3135134E-1,4.3016574E-1,1.4556043E-1,-6.0931873E-1,2.511646E-2,-2.983497E-1,2.0079193E-1,-8.470101E-1,-2.281888E-1,-3.5166836E-1,-1.1788623E0,-1.0187557E0,-1.3570756E0],"categories":[],"categories_nodes":[],"categories_segments":[],"categories_sizes":[],"default_left":[0,0,0,0,0,0,0,0,0,0,0,0,0,0,0,0,0,0,0,0,0,0,0,0,0,0,0,0,0,0,0],"id":7,"left_children":[1,3,5,7,9,11,13,15,17,19,21,23,25,27,29,-1,-1,-1,-1,-1,-1,-1,-1,-1,-1,-1,-1,-1,-1,-1,-1],"loss_changes":[2.2795656E7,1.900213E6,4.861467E6,2.40789E5,3.9771225E5,2.1672805E6,7.7925E5,2.7812E4,4.6576E4,2.3898025E5,3.387953E5,1.1770778E6,2.8011505E6,6.520691E5,2.09251E5,0E0,0E0,0E0,0E0,0E0,0E0,0E0,0E0,0E0,0E0,0E0,0E0,0E0,0E0,0E0,0E0],"parents":[2147483647,0,0,1,1,2,2,3,3,4,4,5,5,6,6,7,7,8,8,9,9,10,10,11,11,12,12,13,13,14,14],"right_children":[2,4,6,8,10,12,14,16,18,20,22,24,26,28,30,-1,-1,-1,-1,-1,-1,-1,-1,-1,-1,-1,-1,-1,-1,-1,-1],"split_conditions":[2.3800738E-1,1.6789667E-1,7.0640063E-1,1.2361623E-1,6.1036193E-1,4.8863637E-1,3.5858482E-1,8.671587E-2,4.7646105E-1,3.6153197E-1,6.429363E-1,4.9159592E-1,4.791443E-1,7.664999E-1,7.6241356E-1,5.5151635E-1,4.9124613E-1,4.5355138E-1,3.3135134E-1,4.3016574E-1,1.4556043E-1,-6.0931873E-1,2.511646E-2,-2.983497E-1,2.0079193E-1,-8.470101E-1,-2.281888E-1,-3.5166836E-1,-1.1788623E0,-1.0187557E0,-1.3570756E0],"split_indices":[42,42,23,42,20,6,36,42,6,24,23,9,13,23,23,0,0,0,0,0,0,0,0,0,0,0,0,0,0,0,0],"split_type":[0,0,0,0,0,0,0,0,0,0,0,0,0,0,0,0,0,0,0,0,0,0,0,0,0,0,0,0,0,0,0],"sum_hessian":[5.5167E4,2.89E4,2.6267E4,2.0391E4,8.509E3,2.0625E4,5.642E3,1.5032E4,5.359E3,6.423E3,2.086E3,7.677E3,1.2948E4,1.804E3,3.838E3,1.0563E4,4.469E3,2.012E3,3.347E3,1.558E3,4.865E3,4.21E2,1.665E3,3.359E3,4.318E3,4.467E3,8.481E3,1.257E3,5.47E2,2.834E3,1.004E3],"tree_param":{"num_deleted":"0","num_feature":"43","num_nodes":"31","size_leaf_vector":"1"}},{"base_weights":[2.7421078E-2,1.9783148E1,-2.010002E1,2.490558E1,9.463468E0,-6.8599057E0,-4.583895E1,2.6698711E1,2.1159859E1,1.6890345E1,4.742891E0,3.0866747E0,-2.6543344E1,-1.8781199E1,-5.164976E1,5.450763E-1,5.0830305E-1,4.3154886E-1,2.1369879E-1,4.153168E-1,-1.649349E-1,2.1360698E-1,-1.3649225E-1,1.5400128E-1,-7.6765156E-1,1.433164E-1,-8.472215E-1,-2.6004007E-1,-8.1099564E-1,-8.484203E-1,-1.2155216E0],"categories":[],"categories_nodes":[],"categories_segments":[],"categories_sizes":[],"default_left":[0,0,0,0,0,0,0,0,0,0,0,0,0,0,0,0,0,0,0,0,0,0,0,0,0,0,0,0,0,0,0],"id":8,"left_children":[1,3,5,7,9,11,13,15,17,19,21,23,25,27,29,-1,-1,-1,-1,-1,-1,-1,-1,-1,-1,-1,-1,-1,-1,-1,-1],"loss_changes":[2.1929414E7,1.471016E6,9.309286E6,1.24357E5,3.2365606E5,3.5320058E6,1.457944E6,8.266E3,2.61285E4,3.4970944E5,3.879177E5,2.293192E6,3.2293785E6,2.0604444E5,6.40728E5,0E0,0E0,0E0,0E0,0E0,0E0,0E0,0E0,0E0,0E0,0E0,0E0,0E0,0E0,0E0,0E0],"parents":[2147483647,0,0,1,1,2,2,3,3,4,4,5,5,6,6,7,7,8,8,9,9,10,10,11,11,12,12,13,13,14,14],"right_children":[2,4,6,8,10,12,14,16,18,20,22,24,26,28,30,-1,-1,-1,-1,-1,-1,-1,-1,-1,-1,-1,-1,-1,-1,-1,-1],"split_conditions":[2.2878228E-1,1.5313654E-1,9.937452E-1,1.0332103E-1,4.8051947E-1,4.1351277E-1,4.943182E-1,7.195572E-2,9.2775977E-1,9.424687E-1,3.650453E-1,9.334416E-1,5.762987E-2,3.213396E-1,9.942136E-1,5.450763E-1,5.0830305E-1,4.3154886E-1,2.1369879E-1,4.153168E-1,-1.649349E-1,2.1360698E-1,-1.3649225E-1,1.5400128E-1,-7.6765156E-1,1.433164E-1,-8.472215E-1,-2.6004007E-1,-8.1099564E-1,-8.484203E-1,-1.2155216E0],"split_indices":[42,42,8,42,6,10,6,42,6,10,10,6,6,5,8,0,0,0,0,0,0,0,0,0,0,0,0,0,0,0,0],"split_type":[0,0,0,0,0,0,0,0,0,0,0,0,0,0,0,0,0,0,0,0,0,0,0,0,0,0,0,0,0,0,0],"sum_hessian":[5.5148E4,2.7831E4,2.7317E4,1.8598E4,9.233E3,1.8039E4,9.278E3,1.2573E4,6.025E3,3.587E3,5.646E3,1.1984E4,6.055E3,1.641E3,7.637E3,8.763E3,3.81E3,5.793E3,2.32E2,3.108E3,4.79E2,3.731E3,1.915E3,1.0785E4,1.199E3,1.934E3,4.121E3,1.298E3,3.43E2,3.8E3,3.837E3],"tree_param":{"num_deleted":"0","num_feature":"43","num_nodes":"31","size_leaf_vector":"1"}},{"base_weights":[7.1180284E-2,1.8692493E1,-2.0526955E1,2.3576056E1,6.4574165E0,-1.3662988E1,-4.5508495E1,2.5731308E1,1.8382912E1,1.0422996E1,-3.7803497E0,-1.2025661E1,-5.0482555E1,-2.834365E1,-5.3484688E1,5.296604E-1,4.7509298E-1,4.4474825E-1,3.3344287E-1,2.2033875E-1,-4.62757E-1,8.228946E-2,-4.133941E-1,-5.43341E-2,-3.376866E-1,-1.398449E0,-7.76233E-1,-3.6097512E-1,-1.2333626E0,-8.9052147E-1,-1.1900519E0],"categories":[],"categories_nodes":[],"categories_segments":[],"categories_sizes":[],"default_left":[0,0,0,0,0,0,0,0,0,0,0,0,0,0,0,0,0,0,0,0,0,0,0,0,0,0,0,0,0,0,0],"id":9,"left_children":[1,3,5,7,9,11,13,15,17,19,21,23,25,27,29,-1,-1,-1,-1,-1,-1,-1,-1,-1,-1,-1,-1,-1,-1,-1,-1],"loss_changes":[2.1170448E7,1.731903E6,4.492985E6,2.31414E5,3.3583103E5,1.238806E6,7.71753E5,2.1123E4,3.972175E4,1.190965E5,3.0809688E5,8.9029E5,1.9580725E5,6.1435825E5,2.05182E5,0E0,0E0,0E0,0E0,0E0,0E0,0E0,0E0,0E0,0E0,0E0,0E0,0E0,0E0,0E0,0E0],"parents":[2147483647,0,0,1,1,2,2,3,3,4,4,5,5,6,6,7,7,8,8,9,9,10,10,11,11,12,12,13,13,14,14],"right_children":[2,4,6,8,10,12,14,16,18,20,22,24,26,28,30,-1,-1,-1,-1,-1,-1,-1,-1,-1,-1,-1,-1,-1,-1,-1,-1],"split_conditions":[2.3800738E-1,1.6974169E-1,7.0640063E-1,1.199262E-1,4.6793744E-1,9.990083E-1,3.5858482E-1,8.671587E-2,4.0562612E-1,9.85772E-1,3.4552744E-1,3.5801527E-1,9.5857567E-1,7.7571076E-1,4.312801E-1,5.296604E-1,4.7509298E-1,4.4474825E-1,3.3344287E-1,2.2033875E-1,-4.62757E-1,8.228946E-2,-4.133941E-1,-5.43341E-2,-3.376866E-1,-1.398449E0,-7.76233E-1,-3.6097512E-1,-1.2333626E0,-8.9052147E-1,-1.1900519E0],"split_indices":[42,42,23,42,16,4,36,42,16,0,24,24,7,23,36,0,0,0,0,0,0,0,0,0,0,0,0,0,0,0,0],"split_type":[0,0,0,0,0,0,0,0,0,0,0,0,0,0,0,0,0,0,0,0,0,0,0,0,0,0,0,0,0,0,0],"sum_hessian":[5.5192E4,2.8987E4,2.6205E4,2.0717E4,8.27E3,2.0558E4,5.647E3,1.4638E4,6.079E3,5.961E3,2.309E3,1.9684E4,8.74E2,1.793E3,3.854E3,1.0596E4,4.042E3,1.865E3,4.214E3,5.858E3,1.03E2,1.574E3,7.35E2,6.751E3,1.2933E4,3.26E2,5.48E2,1.371E3,4.22E2,1.552E3,2.302E3],"tree_param":{"num_deleted":"0","num_feature":"43","num_nodes":"31","size_leaf_vector":"1"}},{"base_weights":[-2.5703708E-2,1.9157225E1,-1.919331E1,2.4027737E1,9.451713E0,-8.062974E0,-4.8058525E1,2.5595356E1,2.0268898E1,1.6542122E1,4.955244E0,-6.1547294E-2,-2.5917902E1,-2.5968956E1,-5.361726E1,5.244553E-1,4.896281E-1,4.5399508E-1,3.697087E-1,4.047992E-1,-1.4824785E-1,2.1548294E-1,-1.2947701E-1,2.7262795E-1,-2.8882965E-1,1.23144805E-1,-8.465478E-1,-3.7915394E-1,-7.580807E-1,-9.4283485E-1,-1.2554035E0],"categories":[],"categories_nodes":[],"categories_segments":[],"categories_sizes":[],"default_left":[0,0,0,0,0,0,0,0,0,0,0,0,0,0,0,0,0,0,0,0,0,0,0,0,0,0,0,0,0,0,0],"id":10,"left_children":[1,3,5,7,9,11,13,15,17,19,21,23,25,27,29,-1,-1,-1,-1,-1,-1,-1,-1,-1,-1,-1,-1,-1,-1,-1,-1],"loss_changes":[2.0247262E7,1.30076E6,8.848935E6,1.0746E5,2.9316675E5,2.8401525E6,9.39794E5,8.394E3,2.29825E4,3.1629175E5,3.7449172E5,2.7034872E6,3.238283E6,1.28399625E5,3.5995E5,0E0,0E0,0E0,0E0,0E0,0E0,0E0,0E0,0E0,0E0,0E0,0E0,0E0,0E0,0E0,0E0],"parents":[2147483647,0,0,1,1,2,2,3,3,4,4,5,5,6,6,7,7,8,8,9,9,10,10,11,11,12,12,13,13,14,14],"right_children":[2,4,6,8,10,12,14,16,18,20,22,24,26,28,30,-1,-1,-1,-1,-1,-1,-1,-1,-1,-1,-1,-1,-1,-1,-1,-1],"split_conditions":[2.2693726E-1,1.5129152E-1,9.938554E-1,1.0701107E-1,4.8051947E-1,4.1403168E-1,4.991883E-1,6.8265684E-2,4.2156067E-1,9.424687E-1,3.650453E-1,9.9346966E-1,5.9253246E-2,9.942687E-1,9.944616E-1,5.244553E-1,4.896281E-1,4.5399508E-1,3.697087E-1,4.047992E-1,-1.4824785E-1,2.1548294E-1,-1.2947701E-1,2.7262795E-1,-2.8882965E-1,1.23144805E-1,-8.465478E-1,-3.7915394E-1,-7.580807E-1,-9.4283485E-1,-1.2554035E0],"split_indices":[42,42,8,42,6,10,6,42,16,10,10,8,6,8,8,0,0,0,0,0,0,0,0,0,0,0,0,0,0,0,0],"split_type":[0,0,0,0,0,0,0,0,0,0,0,0,0,0,0,0,0,0,0,0,0,0,0,0,0,0,0,0,0,0,0],"sum_hessian":[5.5064E4,2.7521E4,2.7543E4,1.8324E4,9.197E3,1.9879E4,7.664E3,1.2927E4,5.397E3,3.568E3,5.629E3,1.3728E4,6.151E3,1.542E3,6.122E3,8.255E3,4.672E3,2.279E3,3.118E3,3.091E3,4.77E2,3.73E3,1.899E3,7.032E3,6.696E3,2.082E3,4.069E3,9.73E2,5.69E2,3.589E3,2.533E3],"tree_param":{"num_deleted":"0","num_feature":"43","num_nodes":"31","size_leaf_vector":"1"}},{"base_weights":[4.4905342E-2,1.7382658E1,-2.0376335E1,2.2799658E1,5.7179775E0,-6.7483377E0,-4.3212036E1,2.4812761E1,1.8239616E1,1.3483081E1,4.7596583E-1,3.8490539E0,-2.660328E1,-1.7519695E1,-4.8718117E1,5.080709E-1,4.55043E-1,3.939249E-1,2.6065102E-1,3.664043E-1,-2.20489E-1,1.5139619E-1,-2.9365113E-1,1.7058904E-1,-7.3360103E-1,1.2062949E-1,-8.415081E-1,-2.3344879E-1,-7.066234E-1,-7.4450177E-1,-1.11414E0],"categories":[],"categories_nodes":[],"categories_segments":[],"categories_sizes":[],"default_left":[0,0,0,0,0,0,0,0,0,0,0,0,0,0,0,0,0,0,0,0,0,0,0,0,0,0,0,0,0,0,0],"id":11,"left_children":[1,3,5,7,9,11,13,15,17,19,21,23,25,27,29,-1,-1,-1,-1,-1,-1,-1,-1,-1,-1,-1,-1,-1,-1,-1,-1],"loss_changes":[1.949304E7,1.881342E6,7.866968E6,1.86202E5,3.844094E5,3.3315332E6,1.3357E6,1.659E4,4.7004125E4,4.5138862E5,6.064852E5,1.958697E6,2.7824128E6,1.7341097E5,6.22842E5,0E0,0E0,0E0,0E0,0E0,0E0,0E0,0E0,0E0,0E0,0E0,0E0,0E0,0E0,0E0,0E0],"parents":[2147483647,0,0,1,1,2,2,3,3,4,4,5,5,6,6,7,7,8,8,9,9,10,10,11,11,12,12,13,13,14,14],"right_children":[2,4,6,8,10,12,14,16,18,20,22,24,26,28,30,-1,-1,-1,-1,-1,-1,-1,-1,-1,-1,-1,-1,-1,-1,-1,-1],"split_conditions":[2.4538745E-1,1.6789667E-1,9.937176E-1,1.16236165E-1,4.8457792E-1,4.1351277E-1,4.943182E-1,9.0405904E-2,9.9344206E-1,9.3949354E-1,3.666367E-1,9.334416E-1,5.762987E-2,3.193269E-1,9.940483E-1,5.080709E-1,4.55043E-1,3.939249E-1,2.6065102E-1,3.664043E-1,-2.20489E-1,1.5139619E-1,-2.9365113E-1,1.7058904E-1,-7.3360103E-1,1.2062949E-1,-8.415081E-1,-2.3344879E-1,-7.066234E-1,-7.4450177E-1,-1.11414E0],"split_indices":[42,42,8,42,6,10,6,42,8,10,10,6,6,5,8,0,0,0,0,0,0,0,0,0,0,0,0,0,0,0,0],"split_type":[0,0,0,0,0,0,0,0,0,0,0,0,0,0,0,0,0,0,0,0,0,0,0,0,0,0,0,0,0,0,0],"sum_hessian":[5.5054E4,2.9775E4,2.5279E4,2.0332E4,9.443E3,1.5832E4,9.447E3,1.4102E4,6.23E3,3.805E3,5.638E3,1.0323E4,5.509E3,1.668E3,7.779E3,1.0951E4,3.151E3,4.866E3,1.364E3,3.178E3,6.27E2,3.841E3,1.797E3,9.255E3,1.068E3,1.772E3,3.737E3,1.257E3,4.11E2,2.944E3,4.835E3],"tree_param":{"num_deleted":"0","num_feature":"43","num_nodes":"31","size_leaf_vector":"1"}},{"base_weights":[-7.732601E-2,1.85107E1,-1.8384565E1,2.3209576E1,9.565386E0,-6.9100237E0,-4.4367233E1,2.4660755E1,2.002428E1,1.6069424E1,5.3518004E0,1.5216887E0,-2.4651007E1,-2.1656738E1,-5.017424E1,5.0413245E-1,4.7264734E-1,4.2603996E-1,3.4208685E-1,3.961073E-1,-1.2027519E-1,2.0839678E-1,-1.0552254E-1,1.2140204E-1,-7.5117993E-1,3.0996922E-2,-8.4576756E-1,-3.077957E-1,-7.9603773E-1,-8.660638E-1,-1.1861619E0],"categories":[],"categories_nodes":[],"categories_segments":[],"categories_sizes":[],"default_left":[0,0,0,0,0,0,0,0,0,0,0,0,0,0,0,0,0,0,0,0,0,0,0,0,0,0,0,0,0,0,0],"id":12,"left_children":[1,3,5,7,9,11,13,15,17,19,21,23,25,27,29,-1,-1,-1,-1,-1,-1,-1,-1,-1,-1,-1,-1,-1,-1,-1,-1],"loss_changes":[1.8735644E7,1.148075E6,8.269478E6,8.2294E4,2.5779812E5,2.8783878E6,1.119497E6,6.3095E3,2.056925E4,3.052922E5,3.07719E5,2.3188658E6,2.8647118E6,1.9634144E5,4.2206E5,0E0,0E0,0E0,0E0,0E0,0E0,0E0,0E0,0E0,0E0,0E0,0E0,0E0,0E0,0E0,0E0],"parents":[2147483647,0,0,1,1,2,2,3,3,4,4,5,5,6,6,7,7,8,8,9,9,10,10,11,11,12,12,13,13,14,14],"right_children":[2,4,6,8,10,12,14,16,18,20,22,24,26,28,30,-1,-1,-1,-1,-1,-1,-1,-1,-1,-1,-1,-1,-1,-1,-1,-1],"split_conditions":[2.2509225E-1,1.4760147E-1,9.938003E-1,1.0147601E-1,4.8051947E-1,4.1351277E-1,4.9837664E-1,6.642067E-2,5.96439E-1,9.410503E-1,3.666367E-1,9.334416E-1,6.5746754E-2,3.213396E-1,9.943789E-1,5.0413245E-1,4.7264734E-1,4.2603996E-1,3.4208685E-1,3.961073E-1,-1.2027519E-1,2.0839678E-1,-1.0552254E-1,1.2140204E-1,-7.5117993E-1,3.0996922E-2,-8.4576756E-1,-3.077957E-1,-7.9603773E-1,-8.660638E-1,-1.1861619E0],"split_indices":[42,42,8,42,6,10,6,42,20,10,10,6,6,5,8,0,0,0,0,0,0,0,0,0,0,0,0,0,0,0,0],"split_type":[0,0,0,0,0,0,0,0,0,0,0,0,0,0,0,0,0,0,0,0,0,0,0,0,0,0,0,0,0,0,0],"sum_hessian":[5.5055E4,2.7318E4,2.7737E4,1.7909E4,9.409E3,1.9241E4,8.496E3,1.2299E4,5.61E3,3.698E3,5.711E3,1.3043E4,6.198E3,1.731E3,6.765E3,8.019E3,4.28E3,3.898E3,1.712E3,3.163E3,5.35E2,3.867E3,1.844E3,1.1684E4,1.359E3,2.494E3,3.704E3,1.288E3,4.43E2,3.864E3,2.901E3],"tree_param":{"num_deleted":"0","num_feature":"43","num_nodes":"31","size_leaf_vector":"1"}},{"base_weights":[-3.511692E-2,1.708332E1,-1.9182846E1,2.1952293E1,6.1074E0,-7.5474763E0,-4.3701714E1,2.3648129E1,1.7013763E1,8.913166E0,-8.095105E0,1.1297215E0,-2.5325712E1,-3.5832897E1,-5.5764957E1,4.879465E-1,4.3227863E-1,3.4905925E-1,1.4121067E-2,2.6865956E-1,-1.2972542E-3,-1.0300976E-2,-5.29599E-1,2.6867634E-1,-2.5536972E-1,-5.9925904E-4,-8.1051177E-1,-5.775989E-1,-1.0678785E0,-8.3727956E-1,-1.159742E0],"categories":[],"categories_nodes":[],"categories_segments":[],"categories_sizes":[],"default_left":[0,0,0,0,0,0,0,0,0,0,0,0,0,0,0,0,0,0,0,0,0,0,0,0,0,0,0,0,0,0,0],"id":13,"left_children":[1,3,5,7,9,11,13,15,17,19,21,23,25,27,29,-1,-1,-1,-1,-1,-1,-1,-1,-1,-1,-1,-1,-1,-1,-1,-1],"loss_changes":[1.8030478E7,1.551967E6,7.407123E6,1.68084E5,3.5576347E5,2.7166402E6,7.91183E5,2.22915E4,3.6845125E4,3.0247675E5,2.0526097E5,2.0240141E6,2.220826E6,6.162885E5,9.9416E4,0E0,0E0,0E0,0E0,0E0,0E0,0E0,0E0,0E0,0E0,0E0,0E0,0E0,0E0,0E0,0E0],"parents":[2147483647,0,0,1,1,2,2,3,3,4,4,5,5,6,6,7,7,8,8,9,9,10,10,11,11,12,12,13,13,14,14],"right_children":[2,4,6,8,10,12,14,16,18,20,22,24,26,28,30,-1,-1,-1,-1,-1,-1,-1,-1,-1,-1,-1,-1,-1,-1,-1,-1],"split_conditions":[2.398524E-1,1.6605166E-1,9.938003E-1,1.2361623E-1,9.9357986E-1,4.1351277E-1,9.943789E-1,9.0405904E-2,9.989028E-1,4.078046E-1,7.010309E-1,9.9346966E-1,6.185567E-2,7.113402E-1,6.063193E-1,4.879465E-1,4.3227863E-1,3.4905925E-1,1.4121067E-2,2.6865956E-1,-1.2972542E-3,-1.0300976E-2,-5.29599E-1,2.6867634E-1,-2.5536972E-1,-5.9925904E-4,-8.1051177E-1,-5.775989E-1,-1.0678785E0,-8.3727956E-1,-1.159742E0],"split_indices":[42,42,8,42,8,10,8,42,4,10,11,8,11,11,9,0,0,0,0,0,0,0,0,0,0,0,0,0,0,0,0],"split_type":[0,0,0,0,0,0,0,0,0,0,0,0,0,0,0,0,0,0,0,0,0,0,0,0,0,0,0,0,0,0,0],"sum_hessian":[5.5006E4,2.9042E4,2.5964E4,2.0117E4,8.925E3,1.7609E4,8.355E3,1.4972E4,5.145E3,7.453E3,1.472E3,1.1834E4,5.775E3,5.059E3,3.296E3,1.0934E4,4.038E3,5.01E3,1.35E2,4.957E3,2.496E3,1.043E3,4.29E2,6.277E3,5.557E3,2.168E3,3.607E3,3.626E3,1.433E3,4.57E2,2.839E3],"tree_param":{"num_deleted":"0","num_feature":"43","num_nodes":"31","size_leaf_vector":"1"}},{"base_weights":[4.8960254E-2,1.7985193E1,-1.7389189E1,2.249988E1,9.777957E0,-5.1793914E0,-4.0090412E1,2.3692305E1,1.9651722E1,1.2020785E1,1.1125637E-1,3.9685307E0,-2.3346619E1,-3.1251915E1,-5.229172E1,4.8434782E-1,4.5375553E-1,4.190862E-1,3.4860957E-1,4.0678534E-1,1.9073261E-1,-5.314337E-1,7.798183E-2,1.4862749E-1,-7.2808087E-1,2.0746745E-2,-7.794786E-1,-4.017423E-1,-8.8519776E-1,-9.088209E-1,-1.1398475E0],"categories":[],"categories_nodes":[],"categories_segments":[],"categories_sizes":[],"default_left":[0,0,0,0,0,0,0,0,0,0,0,0,0,0,0,0,0,0,0,0,0,0,0,0,0,0,0,0,0,0,0],"id":14,"left_children":[1,3,5,7,9,11,13,15,17,19,21,23,25,27,29,-1,-1,-1,-1,-1,-1,-1,-1,-1,-1,-1,-1,-1,-1,-1,-1],"loss_changes":[1.723764E7,1.006439E6,7.745236E6,5.9056E4,2.0906612E5,3.0201405E6,1.052297E6,5.9635E3,1.4616625E4,1.6154638E5,1.8374888E5,1.6900808E6,2.3191458E6,8.225735E5,1.2957E5,0E0,0E0,0E0,0E0,0E0,0E0,0E0,0E0,0E0,0E0,0E0,0E0,0E0,0E0,0E0,0E0],"parents":[2147483647,0,0,1,1,2,2,3,3,4,4,5,5,6,6,7,7,8,8,9,9,10,10,11,11,12,12,13,13,14,14],"right_children":[2,4,6,8,10,12,14,16,18,20,22,24,26,28,30,-1,-1,-1,-1,-1,-1,-1,-1,-1,-1,-1,-1,-1,-1,-1,-1],"split_conditions":[2.2324723E-1,1.4391144E-1,9.937176E-1,1.0147601E-1,6.18885E-1,4.14689E-1,9.942412E-1,6.642067E-2,5.87157E-1,3.5376427E-1,6.353038E-1,9.85313E-1,6.185567E-2,6.685929E-1,9.945718E-1,4.8434782E-1,4.5375553E-1,4.190862E-1,3.4860957E-1,4.0678534E-1,1.9073261E-1,-5.314337E-1,7.798183E-2,1.4862749E-1,-7.2808087E-1,2.0746745E-2,-7.794786E-1,-4.017423E-1,-8.8519776E-1,-9.088209E-1,-1.1398475E0],"split_indices":[42,42,8,42,20,10,8,42,20,24,23,0,11,1,8,0,0,0,0,0,0,0,0,0,0,0,0,0,0,0,0],"split_type":[0,0,0,0,0,0,0,0,0,0,0,0,0,0,0,0,0,0,0,0,0,0,0,0,0,0,0,0,0,0,0],"sum_hessian":[5.511E4,2.7167E4,2.7943E4,1.7525E4,9.642E3,1.8171E4,9.772E3,1.2348E4,5.177E3,7.826E3,1.816E3,1.2086E4,6.085E3,5.669E3,4.103E3,8.094E3,4.254E3,3.258E3,1.919E3,1.798E3,6.028E3,2.25E2,1.591E3,1.1132E4,9.54E2,2.377E3,3.708E3,3.052E3,2.617E3,1.674E3,2.429E3],"tree_param":{"num_deleted":"0","num_feature":"43","num_nodes":"31","size_leaf_vector":"1"}},{"base_weights":[-4.4490647E-2,1.7480747E1,-1.7206152E1,2.1806513E1,8.956346E0,-1.1290923E1,-4.0166496E1,2.3240437E1,1.8781311E1,1.5419136E1,4.912658E0,9.7958845E-1,-1.862198E1,-3.0984484E1,-5.3355587E1,4.7468817E-1,4.460514E-1,4.140224E-1,3.3512387E-1,-1.5842393E-1,3.3143058E-1,-7.677088E-2,1.8953133E-1,-2.4573232E-1,2.1662816E-1,-7.2703344E-1,-1.7568395E-1,-4.373119E-1,-1.0738562E0,-1.0135716E0,-1.2490335E0],"categories":[],"categories_nodes":[],"categories_segments":[],"categories_sizes":[],"default_left":[0,0,0,0,0,0,0,0,0,0,0,0,0,0,0,0,0,0,0,0,0,0,0,0,0,0,0,0,0,0,0],"id":15,"left_children":[1,3,5,7,9,11,13,15,17,19,21,23,25,27,29,-1,-1,-1,-1,-1,-1,-1,-1,-1,-1,-1,-1,-1,-1,-1,-1],"loss_changes":[1.6585231E7,1.005853E6,3.783507E6,7.8071E4,2.3998656E5,1.9929895E6,6.89478E5,5.1575E3,2.229975E4,9.521319E4,2.257755E5,1.0832131E6,2.418724E6,6.9604625E5,5.38395E4,0E0,0E0,0E0,0E0,0E0,0E0,0E0,0E0,0E0,0E0,0E0,0E0,0E0,0E0,0E0,0E0],"parents":[2147483647,0,0,1,1,2,2,3,3,4,4,5,5,6,6,7,7,8,8,9,9,10,10,11,11,12,12,13,13,14,14],"right_children":[2,4,6,8,10,12,14,16,18,20,22,24,26,28,30,-1,-1,-1,-1,-1,-1,-1,-1,-1,-1,-1,-1,-1,-1,-1,-1],"split_conditions":[2.2509225E-1,1.4944649E-1,7.0640063E-1,1.0147601E-1,4.7970778E-1,4.8863637E-1,4.3126932E-1,6.642067E-2,4.347637E-1,1.0550304E-3,4.8110488E-1,6.2660366E-1,4.8020604E-1,7.664999E-1,7.6241356E-1,4.7468817E-1,4.460514E-1,4.140224E-1,3.3512387E-1,-1.5842393E-1,3.3143058E-1,-7.677088E-2,1.8953133E-1,-2.4573232E-1,2.1662816E-1,-7.2703344E-1,-1.7568395E-1,-4.373119E-1,-1.0738562E0,-1.0135716E0,-1.2490335E0],"split_indices":[42,42,23,42,6,6,36,42,16,4,13,4,13,23,23,0,0,0,0,0,0,0,0,0,0,0,0,0,0,0,0],"split_type":[0,0,0,0,0,0,0,0,0,0,0,0,0,0,0,0,0,0,0,0,0,0,0,0,0,0,0,0,0,0,0],"sum_hessian":[5.5142E4,2.7282E4,2.786E4,1.8097E4,9.185E3,2.2154E4,5.706E3,1.2273E4,5.824E3,3.534E3,5.651E3,8.286E3,1.3868E4,3.366E3,2.34E3,8.023E3,4.25E3,2.985E3,2.839E3,1.66E2,3.368E3,1.937E3,3.714E3,3.531E3,4.755E3,4.948E3,8.92E3,2.403E3,9.63E2,1.813E3,5.27E2],"tree_param":{"num_deleted":"0","num_feature":"43","num_nodes":"31","size_leaf_vector":"1"}},{"base_weights":[8.258706E-3,9.946076E0,-6.6607184E0,2.5465678E-2,1.58302145E1,-2.6902477E1,1.1870522E0,9.119798E0,-4.4490623E1,1.9465773E1,7.6615806E0,-1.10990305E1,-4.5599785E1,4.532396E0,-4.8333714E1,2.8109208E-1,-7.2809035E-1,-6.4707106E-1,-1.1026466E0,4.486974E-1,3.266035E-1,1.7222324E-1,-3.8608742E-1,-1.4638376E-1,-6.746168E-1,-1.0174732E0,-2.6839718E-1,4.01389E-1,1.2035682E-2,-6.55776E-1,-1.1953211E0],"categories":[],"categories_nodes":[],"categories_segments":[],"categories_sizes":[],"default_left":[0,0,0,0,0,0,0,0,0,0,0,0,0,0,0,0,0,0,0,0,0,0,0,0,0,0,0,0,0,0,0],"id":16,"left_children":[1,3,5,7,9,11,13,15,17,19,21,23,25,27,29,-1,-1,-1,-1,-1,-1,-1,-1,-1,-1,-1,-1,-1,-1,-1,-1],"loss_changes":[3.6548712E6,1.2927555E6,5.242329E6,3.3387502E6,4.126765E5,2.723837E6,3.94004E6,1.5389402E6,1.7891E5,8.918525E4,1.0983831E5,4.2730538E5,7.16015E5,1.3605082E6,2.6550075E5,0E0,0E0,0E0,0E0,0E0,0E0,0E0,0E0,0E0,0E0,0E0,0E0,0E0,0E0,0E0,0E0],"parents":[2147483647,0,0,1,1,2,2,3,3,4,4,5,5,6,6,7,7,8,8,9,9,10,10,11,11,12,12,13,13,14,14],"right_children":[2,4,6,8,10,12,14,16,18,20,22,24,26,28,30,-1,-1,-1,-1,-1,-1,-1,-1,-1,-1,-1,-1,-1,-1,-1,-1],"split_conditions":[2.4962172E-1,6.2643486E-1,4.7729567E-1,3.2656934E-2,2.3854929E-1,2.6780352E-1,9.364477E-1,7.400024E-2,4.080673E-2,6.2734216E-1,3.1598616E-1,3.1436113E-1,4.791443E-1,8.5292876E-1,9.47328E-1,2.8109208E-1,-7.2809035E-1,-6.4707106E-1,-1.1026466E0,4.486974E-1,3.266035E-1,1.7222324E-1,-3.8608742E-1,-1.4638376E-1,-6.746168E-1,-1.0174732E0,-2.6839718E-1,4.01389E-1,1.2035682E-2,-6.55776E-1,-1.1953211E0],"split_indices":[2,4,12,5,2,2,2,2,5,4,5,5,13,4,2,0,0,0,0,0,0,0,0,0,0,0,0,0,0,0,0],"split_type":[0,0,0,0,0,0,0,0,0,0,0,0,0,0,0,0,0,0,0,0,0,0,0,0,0,0,0,0,0,0,0],"sum_hessian":[5.5145E4,2.2145E4,3.3E4,8.245E3,1.39E4,9.219E3,2.3781E4,6.847E3,1.398E3,9.618E3,4.282E3,4.997E3,4.222E3,2.2277E4,1.504E3,6.178E3,6.69E2,6.55E2,7.43E2,4.937E3,4.681E3,4.137E3,1.45E2,4.283E3,7.14E2,3.627E3,5.95E2,4.497E3,1.778E4,6.39E2,8.65E2],"tree_param":{"num_deleted":"0","num_feature":"43","num_nodes":"31","size_leaf_vector":"1"}},{"base_weights":[8.056722E-3,8.043885E0,-3.5354324E1,9.36129E0,-4.5067684E1,-4.7401776E0,-4.2983814E1,1.0313952E1,-4.2440384E1,-2.0961405E1,-5.6230434E1,-1.7772991E1,4.5635567E0,-3.0732035E1,-4.921057E1,2.785333E-1,-1.2154477E-2,-1.1179647E0,-5.684736E-1,-3.0142623E-1,-8.695982E-1,-9.2355645E-1,-1.2955568E0,-9.986332E-2,-5.441967E-1,2.2211418E-1,-4.259392E-1,-4.603213E-1,-9.060815E-1,-8.887115E-1,-1.1133921E0],"categories":[],"categories_nodes":[],"categories_segments":[],"categories_sizes":[],"default_left":[0,0,0,0,0,0,0,0,0,0,0,0,0,0,0,0,0,0,0,0,0,0,0,0,0,0,0,0,0,0,0],"id":17,"left_children":[1,3,5,7,9,11,13,15,17,19,21,23,25,27,29,-1,-1,-1,-1,-1,-1,-1,-1,-1,-1,-1,-1,-1,-1,-1,-1],"loss_changes":[1.5630554E7,3.1364518E6,2.378709E6,2.1587858E6,2.9078675E5,2.4659016E5,6.20471E5,1.6945635E6,1.4743262E5,4.510417E4,6.0678E4,1.02013375E5,2.0105728E5,3.0816E5,1.64195E5,0E0,0E0,0E0,0E0,0E0,0E0,0E0,0E0,0E0,0E0,0E0,0E0,0E0,0E0,0E0,0E0],"parents":[2147483647,0,0,1,1,2,2,3,3,4,4,5,5,6,6,7,7,8,8,9,9,10,10,11,11,12,12,13,13,14,14],"right_children":[2,4,6,8,10,12,14,16,18,20,22,24,26,28,30,-1,-1,-1,-1,-1,-1,-1,-1,-1,-1,-1,-1,-1,-1,-1,-1],"split_conditions":[9.937452E-1,9.5651424E-1,4.9107143E-1,9.4724023E-1,7.467532E-2,3.7528542E-1,9.9399316E-1,4.14689E-1,9.5896673E-1,2.8656453E-3,9.695911E-1,5.7909924E-1,9.942412E-1,7.8165585E-1,9.945718E-1,2.785333E-1,-1.2154477E-2,-1.1179647E0,-5.684736E-1,-3.0142623E-1,-8.695982E-1,-9.2355645E-1,-1.2955568E0,-9.986332E-2,-5.441967E-1,2.2211418E-1,-4.259392E-1,-4.603213E-1,-9.060815E-1,-8.887115E-1,-1.1133921E0],"split_indices":[8,10,6,6,6,10,8,10,7,8,10,9,8,6,8,0,0,0,0,0,0,0,0,0,0,0,0,0,0,0,0],"split_type":[0,0,0,0,0,0,0,0,0,0,0,0,0,0,0,0,0,0,0,0,0,0,0,0,0,0,0,0,0,0,0],"sum_hessian":[5.5003E4,4.4819E4,1.0184E4,4.3735E4,1.084E3,2.032E3,8.152E3,4.2946E4,7.89E2,3.44E2,7.4E2,8.46E2,1.186E3,2.749E3,5.403E3,3.2271E4,1.0675E4,4.01E2,3.88E2,2.74E2,7E1,3.43E2,3.97E2,3.6E2,4.86E2,9.47E2,2.39E2,1.799E3,9.5E2,3.111E3,2.292E3],"tree_param":{"num_deleted":"0","num_feature":"43","num_nodes":"31","size_leaf_vector":"1"}},{"base_weights":[-4.816578E-2,7.845045E0,-3.4838478E1,8.730501E0,-4.149466E1,-6.5618987E0,-4.2651386E1,-1.243568E0,1.1592765E1,-5.5034416E1,-2.7850384E1,4.140785E0,-1.784534E1,-3.0597109E1,-4.869429E1,2.565058E-1,-4.5582312E-1,2.842938E-1,-3.6918238E-2,-8.6207485E-1,-1.2110245E0,-4.410627E-1,-1.0409192E0,1.9620585E-1,-1.7740005E-1,-4.071245E-2,-4.8832354E-1,-4.6929917E-1,-9.6561307E-1,-8.809291E-1,-1.1008434E0],"categories":[],"categories_nodes":[],"categories_segments":[],"categories_sizes":[],"default_left":[0,0,0,0,0,0,0,0,0,0,0,0,0,0,0,0,0,0,0,0,0,0,0,0,0,0,0,0,0,0,0],"id":18,"left_children":[1,3,5,7,9,11,13,15,17,19,21,23,25,27,29,-1,-1,-1,-1,-1,-1,-1,-1,-1,-1,-1,-1,-1,-1,-1,-1],"loss_changes":[1.515118E7,1.9650608E6,2.25379E6,1.2612542E6,1.4496625E5,2.6696038E5,5.80816E5,2.9869258E6,1.209581E6,2.352025E4,5.4538562E4,8.381003E4,1.117285E5,3.358645E5,1.54626E5,0E0,0E0,0E0,0E0,0E0,0E0,0E0,0E0,0E0,0E0,0E0,0E0,0E0,0E0,0E0,0E0],"parents":[2147483647,0,0,1,1,2,2,3,3,4,4,5,5,6,6,7,7,8,8,9,9,10,10,11,11,12,12,13,13,14,14],"right_children":[2,4,6,8,10,12,14,16,18,20,22,24,26,28,30,-1,-1,-1,-1,-1,-1,-1,-1,-1,-1,-1,-1,-1,-1,-1,-1],"split_conditions":[9.937452E-1,9.4724023E-1,4.935065E-1,9.925328E-1,9.5896673E-1,4.7970778E-1,9.9399316E-1,6.412338E-2,9.935523E-1,9.586039E-1,7.591074E-1,1.3687189E-1,7.569483E-3,6.6412705E-1,9.945718E-1,2.565058E-1,-4.5582312E-1,2.842938E-1,-3.6918238E-2,-8.6207485E-1,-1.2110245E0,-4.410627E-1,-1.0409192E0,1.9620585E-1,-1.7740005E-1,-4.071245E-2,-4.8832354E-1,-4.6929917E-1,-9.6561307E-1,-8.809291E-1,-1.1008434E0],"split_indices":[8,6,6,8,7,6,8,6,8,6,9,3,3,0,8,0,0,0,0,0,0,0,0,0,0,0,0,0,0,0,0],"split_type":[0,0,0,0,0,0,0,0,0,0,0,0,0,0,0,0,0,0,0,0,0,0,0,0,0,0,0,0,0,0,0],"sum_hessian":[5.5172E4,4.497E4,1.0202E4,4.4178E4,7.92E2,2.209E3,7.993E3,9.851E3,3.4327E4,3.96E2,3.96E2,1.134E3,1.075E3,2.671E3,5.322E3,5.96E3,3.891E3,2.8723E4,5.604E3,1.28E2,2.68E2,3.21E2,7.5E1,7.9E2,3.44E2,3.16E2,7.59E2,1.905E3,7.66E2,3.077E3,2.245E3],"tree_param":{"num_deleted":"0","num_feature":"43","num_nodes":"31","size_leaf_vector":"1"}},{"base_weights":[-3.2331064E-2,1.5061151E1,-1.8081081E1,1.9634983E1,3.527613E0,-6.1589246E0,-3.784877E1,2.1574257E1,1.4419481E1,7.508587E0,-8.497759E0,-2.0508387E1,-3.1353664E-1,-1.7757776E1,-4.3370647E1,4.4793528E-1,3.9530468E-1,3.2045993E-1,1.8125011E-1,3.531956E-1,7.905388E-2,2.9584771E-2,-4.957006E-1,1.423975E-1,-7.3145384E-1,5.2284446E-2,-8.0221325E-1,-2.565242E-1,-7.082288E-1,-6.709121E-1,-9.864389E-1],"categories":[],"categories_nodes":[],"categories_segments":[],"categories_sizes":[],"default_left":[0,0,0,0,0,0,0,0,0,0,0,0,0,0,0,0,0,0,0,0,0,0,0,0,0,0,0,0,0,0,0],"id":19,"left_children":[1,3,5,7,9,11,13,15,17,19,21,23,25,27,29,-1,-1,-1,-1,-1,-1,-1,-1,-1,-1,-1,-1,-1,-1,-1,-1],"loss_changes":[1.5003448E7,1.582135E6,5.9109305E6,2.169035E5,4.0784344E5,1.3124352E6,1.046059E6,2.28475E4,4.9883E4,2.3094816E5,3.4437012E5,2.0103615E6,1.2956508E6,1.7680044E5,4.31095E5,0E0,0E0,0E0,0E0,0E0,0E0,0E0,0E0,0E0,0E0,0E0,0E0,0E0,0E0,0E0,0E0],"parents":[2147483647,0,0,1,1,2,2,3,3,4,4,5,5,6,6,7,7,8,8,9,9,10,10,11,11,12,12,13,13,14,14],"right_children":[2,4,6,8,10,12,14,16,18,20,22,24,26,28,30,-1,-1,-1,-1,-1,-1,-1,-1,-1,-1,-1,-1,-1,-1,-1,-1],"split_conditions":[2.4723247E-1,1.7712177E-1,9.937176E-1,1.2915128E-1,6.1036193E-1,9.9269813E-1,4.991883E-1,8.856089E-2,9.9344206E-1,3.6575064E-1,3.352931E-1,5.6006495E-2,9.423701E-1,3.213396E-1,9.940483E-1,4.4793528E-1,3.9530468E-1,3.2045993E-1,1.8125011E-1,3.531956E-1,7.905388E-2,2.9584771E-2,-4.957006E-1,1.423975E-1,-7.3145384E-1,5.2284446E-2,-8.0221325E-1,-2.565242E-1,-7.082288E-1,-6.709121E-1,-9.864389E-1],"split_indices":[42,42,8,42,20,8,6,42,8,24,24,6,6,5,8,0,0,0,0,0,0,0,0,0,0,0,0,0,0,0,0],"split_type":[0,0,0,0,0,0,0,0,0,0,0,0,0,0,0,0,0,0,0,0,0,0,0,0,0,0,0,0,0,0,0],"sum_hessian":[5.5073E4,2.9992E4,2.5081E4,2.1475E4,8.517E3,1.5646E4,9.435E3,1.5652E4,5.823E3,6.399E3,2.118E3,4.528E3,1.1118E4,2.035E3,7.4E3,1.0752E4,4.9E3,4.48E3,1.343E3,1.659E3,4.74E3,1.314E3,8.04E2,1.665E3,2.863E3,1.0357E4,7.61E2,1.592E3,4.43E2,2.794E3,4.606E3],"tree_param":{"num_deleted":"0","num_feature":"43","num_nodes":"31","size_leaf_vector":"1"}},{"base_weights":[3.1748794E-2,1.6669147E1,-1.5650579E1,2.0564121E1,9.276822E0,-4.3605065E0,-3.5440975E1,2.169643E1,1.784038E1,1.5541021E1,5.6692243E0,4.737926E0,-2.1856333E1,-1.2487721E1,-4.0769585E1,4.4306958E-1,4.1332483E-1,3.926846E-1,3.1666628E-1,3.7835056E-1,-3.574454E-2,2.1187705E-1,-4.6319608E-2,1.7808358E-1,-5.4645616E-1,6.065436E-2,-7.791125E-1,-1.6270219E-1,-6.4065856E-1,-6.456038E-1,-9.608615E-1],"categories":[],"categories_nodes":[],"categories_segments":[],"categories_sizes":[],"default_left":[0,0,0,0,0,0,0,0,0,0,0,0,0,0,0,0,0,0,0,0,0,0,0,0,0,0,0,0,0,0,0],"id":20,"left_children":[1,3,5,7,9,11,13,15,17,19,21,23,25,27,29,-1,-1,-1,-1,-1,-1,-1,-1,-1,-1,-1,-1,-1,-1,-1,-1],"loss_changes":[1.4356485E7,7.68552E5,6.3286425E6,5.35385E4,2.0815906E5,2.871316E6,1.257928E6,5.355E3,1.8195E4,1.9703344E5,2.300316E5,1.585356E6,2.6264045E6,1.6478044E5,5.14041E5,0E0,0E0,0E0,0E0,0E0,0E0,0E0,0E0,0E0,0E0,0E0,0E0,0E0,0E0,0E0,0E0],"parents":[2147483647,0,0,1,1,2,2,3,3,4,4,5,5,6,6,7,7,8,8,9,9,10,10,11,11,12,12,13,13,14,14],"right_children":[2,4,6,8,10,12,14,16,18,20,22,24,26,28,30,-1,-1,-1,-1,-1,-1,-1,-1,-1,-1,-1,-1,-1,-1,-1,-1],"split_conditions":[2.195572E-1,1.4391144E-1,9.936901E-1,1.0147601E-1,4.7727272E-1,4.14689E-1,4.943182E-1,7.01107E-2,4.3663996E-1,9.3949354E-1,3.610323E-1,9.2775977E-1,6.412338E-2,3.213396E-1,9.941034E-1,4.4306958E-1,4.1332483E-1,3.926846E-1,3.1666628E-1,3.7835056E-1,-3.574454E-2,2.1187705E-1,-4.6319608E-2,1.7808358E-1,-5.4645616E-1,6.065436E-2,-7.791125E-1,-1.6270219E-1,-6.4065856E-1,-6.456038E-1,-9.608615E-1],"split_indices":[42,42,8,42,6,10,6,42,16,10,10,6,6,5,8,0,0,0,0,0,0,0,0,0,0,0,0,0,0,0,0],"split_type":[0,0,0,0,0,0,0,0,0,0,0,0,0,0,0,0,0,0,0,0,0,0,0,0,0,0,0,0,0,0,0],"sum_hessian":[5.5022E4,2.6698E4,2.8324E4,1.7484E4,9.214E3,1.8036E4,1.0288E4,1.2345E4,5.139E3,3.366E3,5.848E3,1.1866E4,6.17E3,1.939E3,8.349E3,8.537E3,3.808E3,2.709E3,2.43E3,2.817E3,5.49E2,3.617E3,2.231E3,1.0502E4,1.364E3,2.513E3,3.657E3,1.587E3,3.52E2,3.855E3,4.494E3],"tree_param":{"num_deleted":"0","num_feature":"43","num_nodes":"31","size_leaf_vector":"1"}},{"base_weights":[5.0802298E-2,2.1758351E0,-4.2878147E1,3.0201054E0,-4.8367466E1,-3.1750525E1,-5.4119E1,1.2422994E1,-3.1430287E0,-3.3444004E1,-5.8931114E1,-3.958031E1,-2.1717861E1,-4.8516376E1,-5.9646523E1,1.2348373E-1,3.1846946E-1,-4.5480427E-1,1.2834951E-1,-4.607747E-1,-8.312084E-1,-9.5997334E-1,-1.2544183E0,-1.1041648E0,-7.2810906E-1,-2.0490022E-1,-5.307331E-1,-1.0661961E0,-8.6397433E-1,-1.0992165E0,-1.236175E0],"categories":[],"categories_nodes":[],"categories_segments":[],"categories_sizes":[],"default_left":[0,0,0,0,0,0,0,0,0,0,0,0,0,0,0,0,0,0,0,0,0,0,0,0,0,0,0,0,0,0,0],"id":21,"left_children":[1,3,5,7,9,11,13,15,17,19,21,23,25,27,29,-1,-1,-1,-1,-1,-1,-1,-1,-1,-1,-1,-1,-1,-1,-1,-1],"loss_changes":[5.028712E6,2.2414612E6,3.235005E5,2.993917E6,1.3407788E5,1.01967E5,3.711775E4,4.4733075E5,5.8472445E6,2.944575E4,1.7871E4,3.4408625E4,3.1572469E4,1.4189E4,3.148E3,0E0,0E0,0E0,0E0,0E0,0E0,0E0,0E0,0E0,0E0,0E0,0E0,0E0,0E0,0E0,0E0],"parents":[2147483647,0,0,1,1,2,2,3,3,4,4,5,5,6,6,7,7,8,8,9,9,10,10,11,11,12,12,13,13,14,14],"right_children":[2,4,6,8,10,12,14,16,18,20,22,24,26,28,30,-1,-1,-1,-1,-1,-1,-1,-1,-1,-1,-1,-1,-1,-1,-1,-1],"split_conditions":[7.4160194E-1,9.600429E-1,7.7283764E-1,4.862013E-1,8.198052E-2,9.6048194E-1,7.979417E-1,6.2643486E-1,4.7970048E-1,9.642635E-1,8.022097E-2,5.9311306E-1,9.2775977E-1,9.5930886E-1,8.104215E-1,1.2348373E-1,3.1846946E-1,-4.5480427E-1,1.2834951E-1,-4.607747E-1,-8.312084E-1,-9.5997334E-1,-1.2544183E0,-1.1041648E0,-7.2810906E-1,-2.0490022E-1,-5.307331E-1,-1.0661961E0,-8.6397433E-1,-1.0992165E0,-1.236175E0],"split_indices":[9,10,9,6,6,7,9,4,13,10,2,7,6,7,9,0,0,0,0,0,0,0,0,0,0,0,0,0,0,0,0],"split_type":[0,0,0,0,0,0,0,0,0,0,0,0,0,0,0,0,0,0,0,0,0,0,0,0,0,0,0,0,0,0,0],"sum_hessian":[5.5122E4,5.2523E4,2.599E3,5.1661E4,8.62E2,1.308E3,1.291E3,2.0454E4,3.1207E4,3.59E2,5.03E2,7.33E2,5.75E2,6.46E2,6.45E2,7.345E3,1.3109E4,1.0232E4,2.0975E4,1.59E2,2E2,1.33E2,3.7E2,1.21E2,6.12E2,1.71E2,4.04E2,3.35E2,3.11E2,2.12E2,4.33E2],"tree_param":{"num_deleted":"0","num_feature":"43","num_nodes":"31","size_leaf_vector":"1"}},{"base_weights":[7.1086474E-2,1.6370653E1,-1.4996705E1,2.0103249E1,9.374367E0,-4.5326366E0,-3.5137383E1,2.1230606E1,1.7756027E1,1.5382064E1,5.983687E0,3.8255782E0,-2.0498154E1,-1.2805232E1,-4.0148777E1,4.329265E-1,4.0890878E-1,3.611528E-1,1.9201484E-1,3.73163E-1,-2.5321202E-2,2.1386379E-1,-3.2674287E-2,1.5221891E-1,-6.241274E-1,1.8947639E-1,-6.482527E-1,-1.7139798E-1,-6.261196E-1,-5.969014E-1,-9.1205215E-1],"categories":[],"categories_nodes":[],"categories_segments":[],"categories_sizes":[],"default_left":[0,0,0,0,0,0,0,0,0,0,0,0,0,0,0,0,0,0,0,0,0,0,0,0,0,0,0,0,0,0,0],"id":22,"left_children":[1,3,5,7,9,11,13,15,17,19,21,23,25,27,29,-1,-1,-1,-1,-1,-1,-1,-1,-1,-1,-1,-1,-1,-1,-1,-1],"loss_changes":[1.352781E7,6.9077E5,6.032025E6,4.5277E4,1.8745612E5,2.5137488E6,1.094687E6,3.36E3,1.3611E4,1.8115338E5,2.1120873E5,1.6399454E6,2.311819E6,1.4038225E5,4.47746E5,0E0,0E0,0E0,0E0,0E0,0E0,0E0,0E0,0E0,0E0,0E0,0E0,0E0,0E0,0E0,0E0],"parents":[2147483647,0,0,1,1,2,2,3,3,4,4,5,5,6,6,7,7,8,8,9,9,10,10,11,11,12,12,13,13,14,14],"right_children":[2,4,6,8,10,12,14,16,18,20,22,24,26,28,30,-1,-1,-1,-1,-1,-1,-1,-1,-1,-1,-1,-1,-1,-1,-1,-1],"split_conditions":[2.1771218E-1,1.4206642E-1,9.937176E-1,9.594096E-2,2.3854929E-1,4.1285548E-1,4.943182E-1,6.2730625E-2,9.2775977E-1,9.3949354E-1,3.610323E-1,9.334416E-1,5.4383118E-2,3.213396E-1,9.9399316E-1,4.329265E-1,4.0890878E-1,3.611528E-1,1.9201484E-1,3.73163E-1,-2.5321202E-2,2.1386379E-1,-3.2674287E-2,1.5221891E-1,-6.241274E-1,1.8947639E-1,-6.482527E-1,-1.7139798E-1,-6.261196E-1,-5.969014E-1,-9.1205215E-1],"split_indices":[42,42,8,42,2,10,6,42,6,10,10,6,6,5,8,0,0,0,0,0,0,0,0,0,0,0,0,0,0,0,0],"split_type":[0,0,0,0,0,0,0,0,0,0,0,0,0,0,0,0,0,0,0,0,0,0,0,0,0,0,0,0,0,0,0],"sum_hessian":[5.5079E4,2.6458E4,2.8621E4,1.7252E4,9.206E3,1.8836E4,9.785E3,1.1649E4,5.603E3,3.32E3,5.886E3,1.2364E4,6.472E3,1.794E3,7.991E3,7.599E3,4.05E3,5.402E3,2.01E2,2.774E3,5.46E2,3.637E3,2.249E3,1.1159E4,1.205E3,1.841E3,4.631E3,1.461E3,3.33E2,2.768E3,5.223E3],"tree_param":{"num_deleted":"0","num_feature":"43","num_nodes":"31","size_leaf_vector":"1"}},{"base_weights":[2.5515867E-2,2.0878286E0,-4.153742E1,4.17267E0,-1.7666586E1,-3.0675764E1,-5.2484356E1,4.943065E0,-4.483957E1,6.3743085E-1,-3.7667526E1,-3.807965E1,-2.1958508E1,-4.694101E1,-5.7870926E1,2.5792387E-1,-1.2540465E-2,-5.765423E-1,-1.1316404E0,3.890761E-1,-1.3630472E-1,8.301461E-2,-8.136628E-1,-1.0452523E0,-7.000599E-1,-1.9123279E-1,-5.4397553E-1,-1.0306808E0,-8.300511E-1,-1.0665112E0,-1.1999115E0],"categories":[],"categories_nodes":[],"categories_segments":[],"categories_sizes":[],"default_left":[0,0,0,0,0,0,0,0,0,0,0,0,0,0,0,0,0,0,0,0,0,0,0,0,0,0,0,0,0,0,0],"id":23,"left_children":[1,3,5,7,9,11,13,15,17,19,21,23,25,27,29,-1,-1,-1,-1,-1,-1,-1,-1,-1,-1,-1,-1,-1,-1,-1,-1],"loss_changes":[4.7233685E6,2.162277E6,3.08129E5,1.7933488E6,1.8349049E6,8.3713375E4,3.598175E4,2.0712374E6,1.3656762E5,3.672604E5,3.02197E5,2.9021312E4,3.897753E4,1.394775E4,3.10675E3,0E0,0E0,0E0,0E0,0E0,0E0,0E0,0E0,0E0,0E0,0E0,0E0,0E0,0E0,0E0,0E0],"parents":[2147483647,0,0,1,1,2,2,3,3,4,4,5,5,6,6,7,7,8,8,9,9,10,10,11,11,12,12,13,13,14,14],"right_children":[2,4,6,8,10,12,14,16,18,20,22,24,26,28,30,-1,-1,-1,-1,-1,-1,-1,-1,-1,-1,-1,-1,-1,-1,-1,-1],"split_conditions":[7.4160194E-1,7.146813E-1,7.7283764E-1,9.600429E-1,3.585741E-1,9.6338385E-1,7.979417E-1,4.862013E-1,8.198052E-2,5.1429094E-4,1.7304365E-1,5.927664E-1,9.2775977E-1,9.642097E-1,8.104215E-1,2.5792387E-1,-1.2540465E-2,-5.765423E-1,-1.1316404E0,3.890761E-1,-1.3630472E-1,8.301461E-2,-8.136628E-1,-1.0452523E0,-7.000599E-1,-1.9123279E-1,-5.4397553E-1,-1.0306808E0,-8.300511E-1,-1.0665112E0,-1.1999115E0],"split_indices":[9,23,9,10,36,13,9,6,6,36,10,3,6,13,9,0,0,0,0,0,0,0,0,0,0,0,0,0,0,0,0],"split_type":[0,0,0,0,0,0,0,0,0,0,0,0,0,0,0,0,0,0,0,0,0,0,0,0,0,0,0,0,0,0,0],"sum_hessian":[5.5103E4,5.2499E4,2.604E3,4.7488E4,5.011E3,1.309E3,1.295E3,4.6754E4,7.34E2,2.617E3,2.394E3,7.06E2,6.03E2,6.43E2,6.52E2,1.9257E4,2.7497E4,3.12E2,4.22E2,7.42E2,1.875E3,1.61E2,2.233E3,1.23E2,5.83E2,1.8E2,4.23E2,3.44E2,2.99E2,2.16E2,4.36E2],"tree_param":{"num_deleted":"0","num_feature":"43","num_nodes":"31","size_leaf_vector":"1"}},{"base_weights":[-2.7723096E-2,1.5904294E1,-1.4661665E1,1.968283E1,9.118118E0,-4.0727735E0,-3.343922E1,2.0648867E1,1.7301172E1,1.1307665E1,8.211741E-1,4.806271E0,-2.002365E1,-2.5376043E1,-4.3733543E1,4.2178866E-1,3.9656278E-1,3.6282378E-1,2.9108217E-1,2.9395562E-1,1.12494335E-1,1.597351E-1,-1.4995512E-1,1.6680385E-1,-4.939253E-1,2.673924E-2,-6.5070814E-1,-2.9591078E-1,-7.457061E-1,-6.219558E-1,-9.3462294E-1],"categories":[],"categories_nodes":[],"categories_segments":[],"categories_sizes":[],"default_left":[0,0,0,0,0,0,0,0,0,0,0,0,0,0,0,0,0,0,0,0,0,0,0,0,0,0,0,0,0,0,0],"id":24,"left_children":[1,3,5,7,9,11,13,15,17,19,21,23,25,27,29,-1,-1,-1,-1,-1,-1,-1,-1,-1,-1,-1,-1,-1,-1,-1,-1],"loss_changes":[1.286302E7,6.77123E5,5.7177185E6,3.86775E4,1.7164644E5,2.6045032E6,8.59569E5,3.945E3,1.1047875E4,1.4394888E5,1.1772995E5,1.2319295E6,1.7575372E6,7.3242475E5,1.71E5,0E0,0E0,0E0,0E0,0E0,0E0,0E0,0E0,0E0,0E0,0E0,0E0,0E0,0E0,0E0,0E0],"parents":[2147483647,0,0,1,1,2,2,3,3,4,4,5,5,6,6,7,7,8,8,9,9,10,10,11,11,12,12,13,13,14,14],"right_children":[2,4,6,8,10,12,14,16,18,20,22,24,26,28,30,-1,-1,-1,-1,-1,-1,-1,-1,-1,-1,-1,-1,-1,-1,-1,-1],"split_conditions":[2.1771218E-1,1.402214E-1,9.936901E-1,9.9631E-2,9.934972E-1,4.1167924E-1,9.9418604E-1,6.457564E-2,5.2330065E-1,4.052792E-1,6.597938E-1,9.8366076E-1,6.185567E-2,6.701031E-1,6.063193E-1,4.2178866E-1,3.9656278E-1,3.6282378E-1,2.9108217E-1,2.9395562E-1,1.12494335E-1,1.597351E-1,-1.4995512E-1,1.6680385E-1,-4.939253E-1,2.673924E-2,-6.5070814E-1,-2.9591078E-1,-7.457061E-1,-6.219558E-1,-9.3462294E-1],"split_indices":[42,42,8,42,8,10,8,42,28,10,11,0,11,11,9,0,0,0,0,0,0,0,0,0,0,0,0,0,0,0,0],"split_type":[0,0,0,0,0,0,0,0,0,0,0,0,0,0,0,0,0,0,0,0,0,0,0,0,0,0,0,0,0,0,0],"sum_hessian":[5.5169E4,2.6413E4,2.8756E4,1.6965E4,9.448E3,1.8388E4,1.0368E4,1.2064E4,4.901E3,7.475E3,1.973E3,1.1813E4,6.575E3,5.816E3,4.552E3,7.834E3,4.23E3,3.749E3,1.152E3,4.681E3,2.794E3,1.06E3,9.13E2,1.055E4,1.263E3,2.429E3,4.146E3,3.081E3,2.735E3,8.75E2,3.677E3],"tree_param":{"num_deleted":"0","num_feature":"43","num_nodes":"31","size_leaf_vector":"1"}},{"base_weights":[6.57307E-2,7.0927672E0,-3.0954874E1,7.9143057E0,-3.7944515E1,-1.8906018E0,-3.693209E1,-2.060912E0,1.0923382E1,-5.0558254E1,-2.485393E1,3.3538516E0,-2.2030464E1,-2.6244673E1,-4.2363754E1,2.4426231E-1,-4.106431E-1,2.692328E-1,-3.9034612E-2,-8.594103E-1,-1.1551025E0,-3.8936073E-1,-9.619907E-1,1.2132836E-1,-2.7938774E-1,-2.089547E-1,-5.727926E-1,-3.93229E-1,-8.672232E-1,-6.3783604E-1,-9.0707135E-1],"categories":[],"categories_nodes":[],"categories_segments":[],"categories_sizes":[],"default_left":[0,0,0,0,0,0,0,0,0,0,0,0,0,0,0,0,0,0,0,0,0,0,0,0,0,0,0,0,0,0,0],"id":25,"left_children":[1,3,5,7,9,11,13,15,17,19,21,23,25,27,29,-1,-1,-1,-1,-1,-1,-1,-1,-1,-1,-1,-1,-1,-1,-1,-1],"loss_changes":[1.2011515E7,1.662556E6,1.767914E6,1.324397E6,1.3166612E5,1.8354028E5,4.88892E5,2.6964282E6,1.1077928E6,1.9852875E4,4.876733E4,6.4884566E4,2.7183016E4,3.1995212E5,1.73729E5,0E0,0E0,0E0,0E0,0E0,0E0,0E0,0E0,0E0,0E0,0E0,0E0,0E0,0E0,0E0,0E0],"parents":[2147483647,0,0,1,1,2,2,3,3,4,4,5,5,6,6,7,7,8,8,9,9,10,10,11,11,12,12,13,13,14,14],"right_children":[2,4,6,8,10,12,14,16,18,20,22,24,26,28,30,-1,-1,-1,-1,-1,-1,-1,-1,-1,-1,-1,-1,-1,-1,-1,-1],"split_conditions":[9.937452E-1,9.4724023E-1,4.8782468E-1,6.2689906E-1,9.5896673E-1,3.173802E-1,9.9399316E-1,6.25E-2,9.935523E-1,9.6428573E-1,7.591074E-1,6.178373E-1,5.837401E-1,6.635763E-1,5.0974023E-1,2.4426231E-1,-4.106431E-1,2.692328E-1,-3.9034612E-2,-8.594103E-1,-1.1551025E0,-3.8936073E-1,-9.619907E-1,1.2132836E-1,-2.7938774E-1,-2.089547E-1,-5.727926E-1,-3.93229E-1,-8.672232E-1,-6.3783604E-1,-9.0707135E-1],"split_indices":[8,6,6,4,7,5,8,6,8,6,9,9,9,0,6,0,0,0,0,0,0,0,0,0,0,0,0,0,0,0,0],"split_type":[0,0,0,0,0,0,0,0,0,0,0,0,0,0,0,0,0,0,0,0,0,0,0,0,0,0,0,0,0,0,0],"sum_hessian":[5.5101E4,4.4925E4,1.0176E4,4.4121E4,8.04E2,1.736E3,8.44E3,1.0225E4,3.3896E4,4.08E2,3.96E2,1.378E3,3.58E2,2.846E3,5.594E3,5.768E3,4.457E3,2.8314E4,5.582E3,2.02E2,2.06E2,3.23E2,7.3E1,1.192E3,1.86E2,1.31E2,2.27E2,2.057E3,7.89E2,1.245E3,4.349E3],"tree_param":{"num_deleted":"0","num_feature":"43","num_nodes":"31","size_leaf_vector":"1"}},{"base_weights":[3.3121835E-2,1.5321942E1,-1.4339093E1,1.8801115E1,8.167488E0,-4.195388E0,-3.2155533E1,1.9921343E1,1.6028688E1,9.097938E0,-1.3972395E1,4.466237E0,-1.975187E1,-1.4467436E1,-3.7954502E1,4.0787977E-1,3.7954056E-1,3.5306895E-1,2.833651E-1,2.726685E-1,1.1482209E-1,-6.762944E-1,-1.731895E-1,1.6942689E-1,-5.0164497E-1,1.8951811E-1,-6.133383E-1,-1.07937954E-1,-4.606756E-1,-5.748304E-1,-8.6781645E-1],"categories":[],"categories_nodes":[],"categories_segments":[],"categories_sizes":[],"default_left":[0,0,0,0,0,0,0,0,0,0,0,0,0,0,0,0,0,0,0,0,0,0,0,0,0,0,0,0,0,0,0],"id":26,"left_children":[1,3,5,7,9,11,13,15,17,19,21,23,25,27,29,-1,-1,-1,-1,-1,-1,-1,-1,-1,-1,-1,-1,-1,-1,-1,-1],"loss_changes":[1.2080767E7,6.62958E5,5.121424E6,5.5345E4,1.7971831E5,2.4334375E6,1.054001E6,5.3085E3,1.535625E4,1.2730825E5,3.6815273E4,1.3731314E6,2.0608568E6,1.9723719E5,3.86509E5,0E0,0E0,0E0,0E0,0E0,0E0,0E0,0E0,0E0,0E0,0E0,0E0,0E0,0E0,0E0,0E0],"parents":[2147483647,0,0,1,1,2,2,3,3,4,4,5,5,6,6,7,7,8,8,9,9,10,10,11,11,12,12,13,13,14,14],"right_children":[2,4,6,8,10,12,14,16,18,20,22,24,26,28,30,-1,-1,-1,-1,-1,-1,-1,-1,-1,-1,-1,-1,-1,-1,-1,-1],"split_conditions":[2.195572E-1,1.4760147E-1,9.936901E-1,1.05166055E-1,9.318182E-1,4.1167924E-1,5.008117E-1,7.01107E-2,4.3727663E-1,5.591652E-1,9.5930886E-1,9.2775977E-1,5.357143E-2,9.939656E-1,9.9399316E-1,4.0787977E-1,3.7954056E-1,3.5306895E-1,2.833651E-1,2.726685E-1,1.1482209E-1,-6.762944E-1,-1.731895E-1,1.6942689E-1,-5.0164497E-1,1.8951811E-1,-6.133383E-1,-1.07937954E-1,-4.606756E-1,-5.748304E-1,-8.6781645E-1],"split_indices":[42,42,8,42,6,10,6,42,16,20,7,6,6,8,8,0,0,0,0,0,0,0,0,0,0,0,0,0,0,0,0],"split_type":[0,0,0,0,0,0,0,0,0,0,0,0,0,0,0,0,0,0,0,0,0,0,0,0,0,0,0,0,0,0,0],"sum_hessian":[5.4977E4,2.6639E4,2.8338E4,1.7922E4,8.717E3,1.8058E4,1.028E4,1.276E4,5.162E3,8.366E3,3.51E2,1.16E4,6.458E3,2.539E3,7.741E3,8.49E3,4.27E3,2.751E3,2.411E3,3.557E3,4.809E3,7.3E1,2.78E2,1.0216E4,1.384E3,1.756E3,4.702E3,1.234E3,1.305E3,2.875E3,4.866E3],"tree_param":{"num_deleted":"0","num_feature":"43","num_nodes":"31","size_leaf_vector":"1"}},{"base_weights":[-2.0910608E-2,1.8586117E0,-3.8505276E1,3.770136E0,-1.7274265E1,-2.8135685E1,-4.8844833E1,4.4987497E0,-4.2934864E1,2.0912666E-2,-3.585643E1,-3.5256493E1,-1.9428978E1,-4.355478E1,-5.4099842E1,2.4517593E-1,-1.6655384E-2,-5.3868496E-1,-1.0816789E0,3.686585E-1,-1.4513148E-1,-7.894043E-1,-8.5273266E-2,-9.438003E-1,-6.354649E-1,-2.3114825E-2,-4.2612615E-1,-9.595911E-1,-7.670637E-1,-1.0400009E0,-1.161106E0],"categories":[],"categories_nodes":[],"categories_segments":[],"categories_sizes":[],"default_left":[0,0,0,0,0,0,0,0,0,0,0,0,0,0,0,0,0,0,0,0,0,0,0,0,0,0,0,0,0,0,0],"id":27,"left_children":[1,3,5,7,9,11,13,15,17,19,21,23,25,27,29,-1,-1,-1,-1,-1,-1,-1,-1,-1,-1,-1,-1,-1,-1,-1,-1],"loss_changes":[3.98131E6,1.9193774E6,2.734225E5,1.6238618E6,1.532028E6,7.879744E4,3.328275E4,1.9437472E6,1.29304625E5,3.3109694E5,2.6219325E5,2.7764E4,1.9837922E4,1.2982E4,2.288375E3,0E0,0E0,0E0,0E0,0E0,0E0,0E0,0E0,0E0,0E0,0E0,0E0,0E0,0E0,0E0,0E0],"parents":[2147483647,0,0,1,1,2,2,3,3,4,4,5,5,6,6,7,7,8,8,9,9,10,10,11,11,12,12,13,13,14,14],"right_children":[2,4,6,8,10,12,14,16,18,20,22,24,26,28,30,-1,-1,-1,-1,-1,-1,-1,-1,-1,-1,-1,-1,-1,-1,-1,-1],"split_conditions":[7.4160194E-1,7.162145E-1,7.7283764E-1,9.600429E-1,3.585741E-1,9.6048194E-1,7.979417E-1,4.8538962E-1,8.198052E-2,5.1429094E-4,7.441949E-1,5.9382176E-1,9.163961E-1,9.6338385E-1,8.2759035E-1,2.4517593E-1,-1.6655384E-2,-5.3868496E-1,-1.0816789E0,3.686585E-1,-1.4513148E-1,-7.894043E-1,-8.5273266E-2,-9.438003E-1,-6.354649E-1,-2.3114825E-2,-4.2612615E-1,-9.595911E-1,-7.670637E-1,-1.0400009E0,-1.161106E0],"split_indices":[9,23,9,10,36,7,9,6,6,36,18,7,6,13,9,0,0,0,0,0,0,0,0,0,0,0,0,0,0,0,0],"split_type":[0,0,0,0,0,0,0,0,0,0,0,0,0,0,0,0,0,0,0,0,0,0,0,0,0,0,0,0,0,0,0],"sum_hessian":[5.504E4,5.2478E4,2.562E3,4.7712E4,4.766E3,1.281E3,1.281E3,4.698E4,7.32E2,2.469E3,2.297E3,7.03E2,5.78E2,6.43E2,6.38E2,1.9132E4,2.7848E4,3.02E2,4.3E2,6.99E2,1.77E3,2.061E3,2.36E2,1.56E2,5.47E2,5.4E1,5.24E2,3.43E2,3E2,4.26E2,2.12E2],"tree_param":{"num_deleted":"0","num_feature":"43","num_nodes":"31","size_leaf_vector":"1"}},{"base_weights":[5.59894E-2,1.3207742E1,-1.5656818E1,1.7160595E1,2.822224E0,-7.436459E0,-3.6238342E1,1.893506E1,1.2807008E1,1.0428941E1,-2.1745524E0,-5.8723836E0,-4.615126E1,-2.1736347E1,-4.066266E1,3.9283758E-1,3.4426442E-1,2.862573E-1,1.5499367E-1,7.0152126E-2,3.10796E-1,-3.0521455E-1,4.2759236E-2,-3.86111E-1,-1.759024E-2,-6.736028E-1,-1.0880873E0,-1.18631914E-1,-4.928886E-1,-7.2883207E-1,-9.5817053E-1],"categories":[],"categories_nodes":[],"categories_segments":[],"categories_sizes":[],"default_left":[0,0,0,0,0,0,0,0,0,0,0,0,0,0,0,0,0,0,0,0,0,0,0,0,0,0,0,0,0,0,0],"id":28,"left_children":[1,3,5,7,9,11,13,15,17,19,21,23,25,27,29,-1,-1,-1,-1,-1,-1,-1,-1,-1,-1,-1,-1,-1,-1,-1,-1],"loss_changes":[1.1344932E7,1.2268035E6,4.2317875E6,1.66979E5,3.1321734E5,1.0821722E6,4.57163E5,1.8375E4,4.7646562E4,1.1551222E5,2.8073694E5,1.152448E6,6.9597875E4,7.66555E4,1.65526E5,0E0,0E0,0E0,0E0,0E0,0E0,0E0,0E0,0E0,0E0,0E0,0E0,0E0,0E0,0E0,0E0],"parents":[2147483647,0,0,1,1,2,2,3,3,4,4,5,5,6,6,7,7,8,8,9,9,10,10,11,11,12,12,13,13,14,14],"right_children":[2,4,6,8,10,12,14,16,18,20,22,24,26,28,30,-1,-1,-1,-1,-1,-1,-1,-1,-1,-1,-1,-1,-1,-1,-1,-1],"split_conditions":[2.4723247E-1,1.7896679E-1,9.9388295E-1,1.2730627E-1,2.4440975E-1,9.50487E-1,5.032467E-1,9.0405904E-2,9.9344206E-1,6.2696236E-1,1.344885E-1,6.2704676E-1,9.47328E-1,6.9162715E-3,9.945718E-1,3.9283758E-1,3.4426442E-1,2.862573E-1,1.5499367E-1,7.0152126E-2,3.10796E-1,-3.0521455E-1,4.2759236E-2,-3.86111E-1,-1.759024E-2,-6.736028E-1,-1.0880873E0,-1.18631914E-1,-4.928886E-1,-7.2883207E-1,-9.5817053E-1],"split_indices":[42,42,8,42,2,6,6,42,8,4,7,4,2,7,8,0,0,0,0,0,0,0,0,0,0,0,0,0,0,0,0],"split_type":[0,0,0,0,0,0,0,0,0,0,0,0,0,0,0,0,0,0,0,0,0,0,0,0,0,0,0,0,0,0,0],"sum_hessian":[5.4897E4,2.9884E4,2.5013E4,2.1645E4,8.239E3,1.7875E4,7.138E3,1.5375E4,6.27E3,3.266E3,4.973E3,1.7182E4,6.93E2,1.67E3,5.468E3,1.0893E4,4.482E3,4.83E3,1.44E3,1.388E3,1.878E3,1.232E3,3.741E3,4.655E3,1.2527E4,2.78E2,4.15E2,2.6E2,1.41E3,3.459E3,2.009E3],"tree_param":{"num_deleted":"0","num_feature":"43","num_nodes":"31","size_leaf_vector":"1"}},{"base_weights":[-1.5400618E-3,1.2926935E1,-1.5439195E1,1.6908056E1,2.8837502E0,-5.450532E0,-3.1947086E1,1.8628288E1,1.2732948E1,6.4891915E0,-7.949194E0,3.124006E0,-2.0851543E1,-1.6069893E1,-3.6930862E1,3.8573277E-1,3.4071276E-1,2.8287062E-1,1.5866747E-1,1.4806679E-1,-3.8826957E-1,-6.1352485E-1,-3.206506E-2,1.3802493E-1,-5.844902E-1,1.6786844E-1,-6.3425887E-1,-2.3727025E-1,-6.1304784E-1,-6.382464E-1,-8.9807826E-1],"categories":[],"categories_nodes":[],"categories_segments":[],"categories_sizes":[],"default_left":[0,0,0,0,0,0,0,0,0,0,0,0,0,0,0,0,0,0,0,0,0,0,0,0,0,0,0,0,0,0,0],"id":29,"left_children":[1,3,5,7,9,11,13,15,17,19,21,23,25,27,29,-1,-1,-1,-1,-1,-1,-1,-1,-1,-1,-1,-1,-1,-1,-1,-1],"loss_changes":[1.0994957E7,1.1986855E6,4.139929E6,1.539635E5,3.325094E5,2.0659579E6,7.48355E5,1.5612E4,4.2323438E4,1.5138072E5,3.0657206E5,1.2281924E6,1.7774695E6,1.3844775E5,2.86781E5,0E0,0E0,0E0,0E0,0E0,0E0,0E0,0E0,0E0,0E0,0E0,0E0,0E0,0E0,0E0,0E0],"parents":[2147483647,0,0,1,1,2,2,3,3,4,4,5,5,6,6,7,7,8,8,9,9,10,10,11,11,12,12,13,13,14,14],"right_children":[2,4,6,8,10,12,14,16,18,20,22,24,26,28,30,-1,-1,-1,-1,-1,-1,-1,-1,-1,-1,-1,-1,-1,-1,-1,-1],"split_conditions":[2.4723247E-1,1.7712177E-1,9.937176E-1,1.2546125E-1,6.1036193E-1,4.1167924E-1,5.016234E-1,8.856089E-2,9.9344206E-1,9.490763E-1,6.429363E-1,9.334416E-1,5.357143E-2,3.213396E-1,9.943789E-1,3.8573277E-1,3.4071276E-1,2.8287062E-1,1.5866747E-1,1.4806679E-1,-3.8826957E-1,-6.1352485E-1,-3.206506E-2,1.3802493E-1,-5.844902E-1,1.6786844E-1,-6.3425887E-1,-2.3727025E-1,-6.1304784E-1,-6.382464E-1,-8.9807826E-1],"split_indices":[42,42,8,42,20,10,6,42,8,10,23,6,6,5,8,0,0,0,0,0,0,0,0,0,0,0,0,0,0,0,0],"split_type":[0,0,0,0,0,0,0,0,0,0,0,0,0,0,0,0,0,0,0,0,0,0,0,0,0,0,0,0,0,0,0],"sum_hessian":[5.5087E4,2.998E4,2.5107E4,2.1469E4,8.511E3,1.5643E4,9.464E3,1.5202E4,6.267E3,6.386E3,2.125E3,1.0049E4,5.594E3,2.262E3,7.202E3,1.0748E4,4.454E3,4.842E3,1.425E3,6.169E3,2.17E2,4.63E2,1.662E3,8.999E3,1.05E3,1.515E3,4.079E3,1.757E3,5.05E2,4.423E3,2.779E3],"tree_param":{"num_deleted":"0","num_feature":"43","num_nodes":"31","size_leaf_vector":"1"}},{"base_weights":[-1.4672657E-2,1.2754732E1,-1.5289051E1,1.6595362E1,2.9532926E0,-5.1226516E0,-3.0820076E1,1.8178745E1,1.2346265E1,5.944301E0,-8.663008E0,3.7973273E0,-2.051744E1,-1.3335506E1,-3.555877E1,3.8030013E-1,3.385701E-1,3.568733E-1,2.1942663E-1,1.3717E-1,-3.9255354E-1,1.0898384E-3,-4.7214758E-1,1.5394491E-1,-5.112927E-1,1.6506892E-1,-6.2425405E-1,-1.7272535E-1,-5.483379E-1,-5.603691E-1,-8.15109E-1],"categories":[],"categories_nodes":[],"categories_segments":[],"categories_sizes":[],"default_left":[0,0,0,0,0,0,0,0,0,0,0,0,0,0,0,0,0,0,0,0,0,0,0,0,0,0,0,0,0,0,0],"id":30,"left_children":[1,3,5,7,9,11,13,15,17,19,21,23,25,27,29,-1,-1,-1,-1,-1,-1,-1,-1,-1,-1,-1,-1,-1,-1,-1,-1],"loss_changes":[1.0736626E7,1.128584E6,3.9574715E6,1.44703E5,2.9336416E5,2.0804939E6,8.21105E5,1.60835E4,4.4029312E4,1.5709373E5,2.2525116E5,1.0986841E6,1.7105222E6,1.3978272E5,3.04537E5,0E0,0E0,0E0,0E0,0E0,0E0,0E0,0E0,0E0,0E0,0E0,0E0,0E0,0E0,0E0,0E0],"parents":[2147483647,0,0,1,1,2,2,3,3,4,4,5,5,6,6,7,7,8,8,9,9,10,10,11,11,12,12,13,13,14,14],"right_children":[2,4,6,8,10,12,14,16,18,20,22,24,26,28,30,-1,-1,-1,-1,-1,-1,-1,-1,-1,-1,-1,-1,-1,-1,-1,-1],"split_conditions":[2.4723247E-1,1.7712177E-1,9.936901E-1,1.2915128E-1,4.8230803E-1,4.1167924E-1,4.9837664E-1,7.749078E-2,4.3011618E-1,9.490763E-1,3.352931E-1,9.301948E-1,5.357143E-2,3.193269E-1,9.940483E-1,3.8030013E-1,3.385701E-1,3.568733E-1,2.1942663E-1,1.3717E-1,-3.9255354E-1,1.0898384E-3,-4.7214758E-1,1.5394491E-1,-5.112927E-1,1.6506892E-1,-6.2425405E-1,-1.7272535E-1,-5.483379E-1,-5.603691E-1,-8.15109E-1],"split_indices":[42,42,8,42,16,10,6,42,30,10,24,6,6,5,8,0,0,0,0,0,0,0,0,0,0,0,0,0,0,0,0],"split_type":[0,0,0,0,0,0,0,0,0,0,0,0,0,0,0,0,0,0,0,0,0,0,0,0,0,0,0,0,0,0,0],"sum_hessian":[5.5045E4,2.9981E4,2.5064E4,2.154E4,8.441E3,1.5149E4,9.915E3,1.569E4,5.85E3,6.713E3,1.728E3,9.592E3,5.557E3,2.115E3,7.8E3,9.393E3,6.297E3,1.168E3,4.682E3,6.482E3,2.31E2,1.092E3,6.36E2,8.468E3,1.124E3,1.506E3,4.051E3,1.587E3,5.28E2,3.185E3,4.615E3],"tree_param":{"num_deleted":"0","num_feature":"43","num_nodes":"31","size_leaf_vector":"1"}},{"base_weights":[-7.121472E-3,1.4295628E1,-1.2948644E1,1.7387646E1,8.119851E0,-8.606279E0,-3.032336E1,1.8351221E1,1.5065217E1,9.021599E0,-1.0628433E1,1.5894998E0,-1.441598E1,-2.3279816E1,-4.1161015E1,3.7523332E-1,3.5129112E-1,3.258767E-1,2.5556085E-1,2.694636E-1,1.2809582E-1,-5.1434195E-1,-7.2939016E-2,1.24984846E-1,-7.2593266E-1,-1.5162973E-1,-6.235226E-1,-3.197618E-1,-8.3499587E-1,-7.790048E-1,-9.807719E-1],"categories":[],"categories_nodes":[],"categories_segments":[],"categories_sizes":[],"default_left":[0,0,0,0,0,0,0,0,0,0,0,0,0,0,0,0,0,0,0,0,0,0,0,0,0,0,0,0,0,0,0],"id":31,"left_children":[1,3,5,7,9,11,13,15,17,19,21,23,25,27,29,-1,-1,-1,-1,-1,-1,-1,-1,-1,-1,-1,-1,-1,-1,-1,-1],"loss_changes":[1.0217485E7,5.005655E5,2.1861275E6,3.88225E4,1.4802531E5,1.3734324E6,4.4133E5,3.656E3,1.4204625E4,9.717056E4,4.2253395E4,1.4861609E6,1.6916245E6,4.7259088E5,3.78145E4,0E0,0E0,0E0,0E0,0E0,0E0,0E0,0E0,0E0,0E0,0E0,0E0,0E0,0E0,0E0,0E0],"parents":[2147483647,0,0,1,1,2,2,3,3,4,4,5,5,6,6,7,7,8,8,9,9,10,10,11,11,12,12,13,13,14,14],"right_children":[2,4,6,8,10,12,14,16,18,20,22,24,26,28,30,-1,-1,-1,-1,-1,-1,-1,-1,-1,-1,-1,-1,-1,-1,-1,-1],"split_conditions":[2.1586716E-1,1.4391144E-1,7.0640063E-1,1.0147601E-1,9.301948E-1,4.862013E-1,4.312801E-1,6.642067E-2,4.533127E-1,4.7564936E-1,9.5987093E-1,9.5350444E-1,3.7431675E-1,7.664999E-1,7.6241356E-1,3.7523332E-1,3.5129112E-1,3.258767E-1,2.5556085E-1,2.694636E-1,1.2809582E-1,-5.1434195E-1,-7.2939016E-2,1.24984846E-1,-7.2593266E-1,-1.5162973E-1,-6.235226E-1,-3.197618E-1,-8.3499587E-1,-7.790048E-1,-9.807719E-1],"split_indices":[42,42,23,42,6,6,36,42,16,6,7,10,10,23,23,0,0,0,0,0,0,0,0,0,0,0,0,0,0,0,0],"split_type":[0,0,0,0,0,0,0,0,0,0,0,0,0,0,0,0,0,0,0,0,0,0,0,0,0,0,0,0,0,0,0],"sum_hessian":[5.5198E4,2.622E4,2.8978E4,1.7471E4,8.749E3,2.3185E4,5.793E3,1.2343E4,5.128E3,8.348E3,4.01E2,8.416E3,1.4769E4,3.513E3,2.28E3,8.096E3,4.247E3,3.332E3,1.796E3,3.089E3,5.259E3,1.26E2,2.75E2,7.495E3,9.21E2,1.0492E4,4.277E3,2.52E3,9.93E2,1.785E3,4.95E2],"tree_param":{"num_deleted":"0","num_feature":"43","num_nodes":"31","size_leaf_vector":"1"}},{"base_weights":[5.248452E-3,6.758454E0,-2.5479189E1,7.8624845E0,-3.678554E1,-7.221779E-1,-3.1291464E1,8.619429E0,-2.9612032E1,-2.0093378E1,-4.8179092E1,3.8300056E0,-1.8010904E1,-2.1845182E1,-3.7812584E1,2.3577152E-1,-1.6112996E-2,-2.563782E-1,-7.8593814E-1,-2.6885772E-1,-6.5977967E-1,-6.9715226E-1,-1.0478129E0,-1.2771456E-1,2.0624839E-1,-1.3233447E-1,-4.9521068E-1,-3.7443748E-1,-1.0663016E0,-7.0736235E-1,-9.6213096E-1],"categories":[],"categories_nodes":[],"categories_segments":[],"categories_sizes":[],"default_left":[0,0,0,0,0,0,0,0,0,0,0,0,0,0,0,0,0,0,0,0,0,0,0,0,0,0,0,0,0,0,0],"id":32,"left_children":[1,3,5,7,9,11,13,15,17,19,21,23,25,27,29,-1,-1,-1,-1,-1,-1,-1,-1,-1,-1,-1,-1,-1,-1,-1,-1],"loss_changes":[9.445454E6,2.0860236E6,1.6543335E6,1.2005392E6,2.0309825E5,1.7218906E5,5.72735E5,1.2389055E6,1.3578806E5,3.703458E4,3.391225E4,1.1476344E5,3.4905562E4,3.7299638E5,1.368725E5,0E0,0E0,0E0,0E0,0E0,0E0,0E0,0E0,0E0,0E0,0E0,0E0,0E0,0E0,0E0,0E0],"parents":[2147483647,0,0,1,1,2,2,3,3,4,4,5,5,6,6,7,7,8,8,9,9,10,10,11,11,12,12,13,13,14,14],"right_children":[2,4,6,8,10,12,14,16,18,20,22,24,26,28,30,-1,-1,-1,-1,-1,-1,-1,-1,-1,-1,-1,-1,-1,-1,-1,-1],"split_conditions":[9.936901E-1,9.5651424E-1,4.8863637E-1,9.448052E-1,7.7922076E-2,3.1598616E-1,9.9399316E-1,4.152771E-1,9.364477E-1,9.642635E-1,7.6786354E-2,3.7839895E-1,5.8003706E-1,9.5454544E-1,7.9383117E-1,2.3577152E-1,-1.6112996E-2,-2.563782E-1,-7.8593814E-1,-2.6885772E-1,-6.5977967E-1,-6.9715226E-1,-1.0478129E0,-1.2771456E-1,2.0624839E-1,-1.3233447E-1,-4.9521068E-1,-3.7443748E-1,-1.0663016E0,-7.0736235E-1,-9.6213096E-1],"split_indices":[8,10,6,6,6,5,8,10,2,10,2,10,9,6,6,0,0,0,0,0,0,0,0,0,0,0,0,0,0,0,0],"split_type":[0,0,0,0,0,0,0,0,0,0,0,0,0,0,0,0,0,0,0,0,0,0,0,0,0,0,0,0,0,0,0],"sum_hessian":[5.4881E4,4.3385E4,1.1496E4,4.2313E4,1.072E3,2.186E3,9.31E3,4.1476E4,8.37E2,4.36E2,6.36E2,1.731E3,4.55E2,3.804E3,5.506E3,3.1039E4,1.0437E4,3.07E2,5.3E2,2.89E2,1.47E2,1.55E2,4.81E2,6.72E2,1.059E3,1.7E2,2.85E2,3.462E3,3.42E2,4.453E3,1.053E3],"tree_param":{"num_deleted":"0","num_feature":"43","num_nodes":"31","size_leaf_vector":"1"}},{"base_weights":[-1.9168468E-2,1.1740706E1,-1.4773008E1,1.5528051E1,1.9018294E0,-7.0265393E0,-3.3419697E1,1.7427332E1,1.1722491E1,5.2175083E0,-1.02754755E1,-1.08185E0,-2.151192E1,-2.0237082E1,-3.730042E1,3.6196616E-1,3.251372E-1,2.6488116E-1,1.3376884E-1,1.5112014E-1,-1.4169364E-1,-6.5295935E-1,-1.145872E-1,2.1324942E-1,-2.4299891E-1,1.6228793E-2,-7.623834E-1,-8.9045726E-2,-4.6089724E-1,-6.6885144E-1,-8.783385E-1],"categories":[],"categories_nodes":[],"categories_segments":[],"categories_sizes":[],"default_left":[0,0,0,0,0,0,0,0,0,0,0,0,0,0,0,0,0,0,0,0,0,0,0,0,0,0,0,0,0,0,0],"id":33,"left_children":[1,3,5,7,9,11,13,15,17,19,21,23,25,27,29,-1,-1,-1,-1,-1,-1,-1,-1,-1,-1,-1,-1,-1,-1,-1,-1],"loss_changes":[9.563156E6,1.1428705E6,3.5310365E6,1.598635E5,3.442997E5,1.4873738E6,3.663045E5,1.1306E4,5.6408938E4,1.9286111E5,1.8542995E5,1.5922138E6,1.8633182E6,7.231669E4,1.39993E5,0E0,0E0,0E0,0E0,0E0,0E0,0E0,0E0,0E0,0E0,0E0,0E0,0E0,0E0,0E0,0E0],"parents":[2147483647,0,0,1,1,2,2,3,3,4,4,5,5,6,6,7,7,8,8,9,9,10,10,11,11,12,12,13,13,14,14],"right_children":[2,4,6,8,10,12,14,16,18,20,22,24,26,28,30,-1,-1,-1,-1,-1,-1,-1,-1,-1,-1,-1,-1,-1,-1,-1,-1],"split_conditions":[2.5276753E-1,1.8265682E-1,9.9388295E-1,1.2177122E-1,6.16871E-1,4.1801012E-1,5.032467E-1,7.749078E-2,9.9344206E-1,9.9357986E-1,6.9793916E-1,9.9346966E-1,6.5746754E-2,6.9162715E-3,9.945718E-1,3.6196616E-1,3.251372E-1,2.6488116E-1,1.3376884E-1,1.5112014E-1,-1.4169364E-1,-6.5295935E-1,-1.145872E-1,2.1324942E-1,-2.4299891E-1,1.6228793E-2,-7.623834E-1,-8.9045726E-2,-4.6089724E-1,-6.6885144E-1,-8.783385E-1],"split_indices":[42,42,8,42,20,10,6,42,8,8,18,8,6,7,8,0,0,0,0,0,0,0,0,0,0,0,0,0,0,0,0],"split_type":[0,0,0,0,0,0,0,0,0,0,0,0,0,0,0,0,0,0,0,0,0,0,0,0,0,0,0,0,0,0,0],"sum_hessian":[5.5116E4,3.067E4,2.4446E4,2.2145E4,8.525E3,1.7272E4,7.174E3,1.477E4,7.375E3,6.701E3,1.824E3,1.2247E4,5.025E3,1.633E3,5.541E3,9.379E3,5.391E3,5.662E3,1.713E3,5.631E3,1.07E3,3.07E2,1.517E3,5.942E3,6.305E3,2.144E3,2.881E3,2.47E2,1.386E3,3.504E3,2.037E3],"tree_param":{"num_deleted":"0","num_feature":"43","num_nodes":"31","size_leaf_vector":"1"}},{"base_weights":[9.004629E-3,1.1496597E1,-1.4478572E1,1.56043E1,2.7988765E0,-1.0682268E1,-3.254351E1,1.7096613E1,1.1967535E1,1.0232996E1,-1.5798051E0,-6.961373E-1,-1.6496593E1,-2.26767E1,-3.7567482E1,3.5464126E-1,3.195204E-1,3.3787093E-1,2.1478792E-1,2.9684564E-1,-2.2235176E-1,9.9414624E-2,-2.6889765E-1,6.934053E-2,-7.399996E-1,-6.255907E-1,-1.6481954E-1,-3.2141703E-1,-9.085624E-1,-6.874878E-1,-9.253058E-1],"categories":[],"categories_nodes":[],"categories_segments":[],"categories_sizes":[],"default_left":[0,0,0,0,0,0,0,0,0,0,0,0,0,0,0,0,0,0,0,0,0,0,0,0,0,0,0,0,0,0,0],"id":34,"left_children":[1,3,5,7,9,11,13,15,17,19,21,23,25,27,29,-1,-1,-1,-1,-1,-1,-1,-1,-1,-1,-1,-1,-1,-1,-1,-1],"loss_changes":[9.163326E6,1.0971162E6,1.6695755E6,1.12996E5,3.20715E5,1.1683825E6,2.087325E5,1.02465E4,3.6553125E4,3.595618E5,4.8202488E5,1.1194625E6,1.5518758E6,2.1403775E5,7.617375E4,0E0,0E0,0E0,0E0,0E0,0E0,0E0,0E0,0E0,0E0,0E0,0E0,0E0,0E0,0E0,0E0],"parents":[2147483647,0,0,1,1,2,2,3,3,4,4,5,5,6,6,7,7,8,8,9,9,10,10,11,11,12,12,13,13,14,14],"right_children":[2,4,6,8,10,12,14,16,18,20,22,24,26,28,30,-1,-1,-1,-1,-1,-1,-1,-1,-1,-1,-1,-1,-1,-1,-1,-1],"split_conditions":[2.5276753E-1,1.7158672E-1,7.206504E-1,1.2177122E-1,4.8051947E-1,4.8944804E-1,3.585953E-1,7.749078E-2,4.3011618E-1,9.3949354E-1,3.666367E-1,9.5651424E-1,4.8020604E-1,7.9014266E-1,7.710101E-1,3.5464126E-1,3.195204E-1,3.3787093E-1,2.1478792E-1,2.9684564E-1,-2.2235176E-1,9.9414624E-2,-2.6889765E-1,6.934053E-2,-7.399996E-1,-6.255907E-1,-1.6481954E-1,-3.2141703E-1,-9.085624E-1,-6.874878E-1,-9.253058E-1],"split_indices":[42,42,23,42,6,6,36,42,30,10,10,10,13,23,23,0,0,0,0,0,0,0,0,0,0,0,0,0,0,0,0],"split_type":[0,0,0,0,0,0,0,0,0,0,0,0,0,0,0,0,0,0,0,0,0,0,0,0,0,0,0,0,0,0,0],"sum_hessian":[5.5057E4,3.0708E4,2.4349E4,2.0857E4,9.851E3,2.0122E4,4.227E3,1.4786E4,6.071E3,3.651E3,6.2E3,7.405E3,1.2717E4,1.428E3,2.799E3,9.426E3,5.36E3,1.209E3,4.862E3,3.003E3,6.48E2,3.995E3,2.205E3,6.644E3,7.61E2,4.556E3,8.161E3,1.108E3,3.2E2,2.051E3,7.48E2],"tree_param":{"num_deleted":"0","num_feature":"43","num_nodes":"31","size_leaf_vector":"1"}},{"base_weights":[-3.2302957E-2,6.4202323E0,-2.4238195E1,7.475732E0,-3.488332E1,-3.1362312E0,-3.0557339E1,1.0313311E1,-1.2079844E0,-1.8439945E1,-4.5758575E1,2.3508623E0,-1.745613E1,-2.2127846E1,-3.6242348E1,2.3260188E-1,-4.0220553E-1,1.0232984E-1,-8.4605247E-1,-2.7182195E-1,-7.313403E-1,-7.456275E-1,-1.0412368E0,-1.3238735E-1,1.9372812E-1,-5.442024E-1,-1.9325206E-1,-3.088192E-1,-7.6526296E-1,-6.760149E-1,-9.19405E-1],"categories":[],"categories_nodes":[],"categories_segments":[],"categories_sizes":[],"default_left":[0,0,0,0,0,0,0,0,0,0,0,0,0,0,0,0,0,0,0,0,0,0,0,0,0,0,0,0,0,0,0],"id":35,"left_children":[1,3,5,7,9,11,13,15,17,19,21,23,25,27,29,-1,-1,-1,-1,-1,-1,-1,-1,-1,-1,-1,-1,-1,-1,-1,-1],"loss_changes":[8.620403E6,1.8999952E6,1.548855E6,1.04702175E6,1.9336125E5,2.1046384E5,4.275705E5,1.283237E6,2.7203518E6,3.764961E4,3.2951375E4,1.2752166E5,5.614242E4,3.8815462E5,1.252085E5,0E0,0E0,0E0,0E0,0E0,0E0,0E0,0E0,0E0,0E0,0E0,0E0,0E0,0E0,0E0,0E0],"parents":[2147483647,0,0,1,1,2,2,3,3,4,4,5,5,6,6,7,7,8,8,9,9,10,10,11,11,12,12,13,13,14,14],"right_children":[2,4,6,8,10,12,14,16,18,20,22,24,26,28,30,-1,-1,-1,-1,-1,-1,-1,-1,-1,-1,-1,-1,-1,-1,-1,-1],"split_conditions":[9.936901E-1,9.5651424E-1,4.935065E-1,4.152771E-1,7.7922076E-2,9.9407583E-1,9.9399316E-1,9.375E-1,5.064935E-1,2.046759E-3,9.695911E-1,3.799557E-1,3.6836642E-1,6.646778E-1,7.9383117E-1,2.3260188E-1,-4.0220553E-1,1.0232984E-1,-8.4605247E-1,-2.7182195E-1,-7.313403E-1,-7.456275E-1,-1.0412368E0,-1.3238735E-1,1.9372812E-1,-5.442024E-1,-1.9325206E-1,-3.088192E-1,-7.6526296E-1,-6.760149E-1,-9.19405E-1],"split_indices":[8,10,6,10,6,8,8,6,6,4,10,10,10,0,6,0,0,0,0,0,0,0,0,0,0,0,0,0,0,0,0],"split_type":[0,0,0,0,0,0,0,0,0,0,0,0,0,0,0,0,0,0,0,0,0,0,0,0,0,0,0,0,0,0,0],"sum_hessian":[5.519E4,4.3575E4,1.1615E4,4.249E4,1.085E3,2.677E3,8.938E3,3.2025E4,1.0465E4,4.33E2,6.52E2,1.936E3,7.41E2,3.602E3,5.336E3,3.0697E4,1.328E3,9.07E3,1.395E3,3.43E2,9E1,2.81E2,3.71E2,8.71E2,1.065E3,3.28E2,4.13E2,2.548E3,1.054E3,4.269E3,1.067E3],"tree_param":{"num_deleted":"0","num_feature":"43","num_nodes":"31","size_leaf_vector":"1"}},{"base_weights":[-6.1992474E-2,1.3284092E1,-1.1732667E1,1.603442E1,7.726649E0,-1.4071163E0,-1.7662832E1,1.692642E1,1.4058234E1,1.2926029E1,4.7164187E0,2.3310814E0,-3.400333E1,-3.260661E1,-1.017752E1,3.4730926E-1,3.2616204E-1,3.227529E-1,2.6082364E-1,3.154618E-1,-7.168158E-2,1.8750045E-1,-5.2638464E-2,1.3826865E-1,-1.9447048E-1,-4.1443178E-1,-8.8829327E-1,-3.564832E-1,-8.507749E-1,-9.7739615E-2,-7.2820145E-1],"categories":[],"categories_nodes":[],"categories_segments":[],"categories_sizes":[],"default_left":[0,0,0,0,0,0,0,0,0,0,0,0,0,0,0,0,0,0,0,0,0,0,0,0,0,0,0,0,0,0,0],"id":36,"left_children":[1,3,5,7,9,11,13,15,17,19,21,23,25,27,29,-1,-1,-1,-1,-1,-1,-1,-1,-1,-1,-1,-1,-1,-1,-1,-1],"loss_changes":[8.586616E6,3.929705E5,1.8008145E6,3.0087E4,1.3322575E5,1.3075415E6,2.0893035E6,2.933E3,1.1116875E4,1.4680706E5,1.8471183E5,5.318476E5,1.5174138E5,9.14526E5,1.7274094E6,0E0,0E0,0E0,0E0,0E0,0E0,0E0,0E0,0E0,0E0,0E0,0E0,0E0,0E0,0E0,0E0],"parents":[2147483647,0,0,1,1,2,2,3,3,4,4,5,5,6,6,7,7,8,8,9,9,10,10,11,11,12,12,13,13,14,14],"right_children":[2,4,6,8,10,12,14,16,18,20,22,24,26,28,30,-1,-1,-1,-1,-1,-1,-1,-1,-1,-1,-1,-1,-1,-1,-1,-1],"split_conditions":[2.1217713E-1,1.4206642E-1,2.532965E-1,9.778598E-2,2.3854929E-1,9.5350444E-1,4.7729567E-1,5.719557E-2,4.0779814E-1,9.410503E-1,3.6009824E-1,4.0590405E-1,9.642635E-1,5.064935E-1,7.493688E-1,3.4730926E-1,3.2616204E-1,3.227529E-1,2.6082364E-1,3.154618E-1,-7.168158E-2,1.8750045E-1,-5.2638464E-2,1.3826865E-1,-1.9447048E-1,-4.1443178E-1,-8.8829327E-1,-3.564832E-1,-8.507749E-1,-9.7739615E-2,-7.2820145E-1],"split_indices":[42,42,2,42,2,10,12,42,16,10,10,42,10,6,9,0,0,0,0,0,0,0,0,0,0,0,0,0,0,0,0],"split_type":[0,0,0,0,0,0,0,0,0,0,0,0,0,0,0,0,0,0,0,0,0,0,0,0,0,0,0,0,0,0,0],"sum_hessian":[5.5126E4,2.5717E4,2.9409E4,1.7202E4,8.515E3,1.0729E4,1.868E4,1.1847E4,5.355E3,3.121E3,5.394E3,9.626E3,1.103E3,6.233E3,1.2447E4,6.912E3,4.935E3,1.754E3,3.601E3,2.662E3,4.59E2,3.301E3,2.093E3,6.975E3,2.651E3,4.86E2,6.17E2,2.506E3,3.727E3,1.0359E4,2.088E3],"tree_param":{"num_deleted":"0","num_feature":"43","num_nodes":"31","size_leaf_vector":"1"}},{"base_weights":[-7.241379E-2,1.3045346E1,-1.1598583E1,1.5910552E1,7.9438634E0,-2.0911264E0,-2.5049263E1,1.6611273E1,1.4244685E1,9.786989E0,8.342276E-1,6.6567574E0,-1.7040148E1,-1.7188225E1,-3.255987E1,3.3994064E-1,3.199181E-1,3.002302E-1,2.3536883E-1,2.5373667E-1,9.495832E-2,1.7655458E-1,-8.779119E-2,1.7720906E-1,-5.446608E-1,-1.6947938E-2,-6.4971024E-1,-1.5926841E-1,-5.2150345E-1,-5.586974E-1,-7.72147E-1],"categories":[],"categories_nodes":[],"categories_segments":[],"categories_sizes":[],"default_left":[0,0,0,0,0,0,0,0,0,0,0,0,0,0,0,0,0,0,0,0,0,0,0,0,0,0,0,0,0,0,0],"id":37,"left_children":[1,3,5,7,9,11,13,15,17,19,21,23,25,27,29,-1,-1,-1,-1,-1,-1,-1,-1,-1,-1,-1,-1,-1,-1,-1,-1],"loss_changes":[8.3414165E6,3.77031E5,3.755323E6,1.904975E4,1.2162275E5,2.2501818E6,7.1744E5,2.48725E3,9.12575E3,1.0764869E5,7.987689E4,8.109235E5,1.5886261E6,4.8708362E5,1.728365E5,0E0,0E0,0E0,0E0,0E0,0E0,0E0,0E0,0E0,0E0,0E0,0E0,0E0,0E0,0E0,0E0],"parents":[2147483647,0,0,1,1,2,2,3,3,4,4,5,5,6,6,7,7,8,8,9,9,10,10,11,11,12,12,13,13,14,14],"right_children":[2,4,6,8,10,12,14,16,18,20,22,24,26,28,30,-1,-1,-1,-1,-1,-1,-1,-1,-1,-1,-1,-1,-1,-1,-1,-1],"split_conditions":[2.1217713E-1,1.3653137E-1,9.936074E-1,9.594096E-2,9.934972E-1,4.14689E-1,9.9399316E-1,5.904059E-2,4.907873E-1,4.052792E-1,6.5091157E-1,8.97979E-1,3.2656934E-2,8.5309756E-1,9.945167E-1,3.3994064E-1,3.199181E-1,3.002302E-1,2.3536883E-1,2.5373667E-1,9.495832E-2,1.7655458E-1,-8.779119E-2,1.7720906E-1,-5.446608E-1,-1.6947938E-2,-6.4971024E-1,-1.5926841E-1,-5.2150345E-1,-5.586974E-1,-7.72147E-1],"split_indices":[42,42,8,42,8,10,8,42,30,10,4,5,5,4,8,0,0,0,0,0,0,0,0,0,0,0,0,0,0,0,0],"split_type":[0,0,0,0,0,0,0,0,0,0,0,0,0,0,0,0,0,0,0,0,0,0,0,0,0,0,0,0,0,0,0],"sum_hessian":[5.5167E4,2.5802E4,2.9365E4,1.6521E4,9.281E3,1.7205E4,1.216E4,1.1623E4,4.898E3,7.37E3,1.911E3,1.0854E4,6.351E3,5.943E3,6.217E3,7.128E3,4.495E3,3.736E3,1.162E3,4.677E3,2.693E3,7.55E2,1.156E3,1.0192E4,6.62E2,3.101E3,3.25E3,2.917E3,3.026E3,3.526E3,2.691E3],"tree_param":{"num_deleted":"0","num_feature":"43","num_nodes":"31","size_leaf_vector":"1"}},{"base_weights":[-6.0845125E-3,1.2941781E1,-1.1152477E1,1.5538274E1,7.945049E0,-2.7576063E0,-2.5453321E1,1.6344212E1,1.392073E1,8.588567E0,-1.0590347E1,5.0411124E0,-1.6272469E1,-1.6120483E1,-3.1760338E1,3.3392364E-1,3.1537622E-1,3.053286E-1,2.4665304E-1,1.8518554E-1,-9.301295E-2,-4.4852845E-2,-4.555478E-1,2.5667056E-1,-9.4177805E-2,1.8236604E-2,-5.6019723E-1,-2.2684243E-1,-8.615565E-1,-4.8074535E-1,-7.207369E-1],"categories":[],"categories_nodes":[],"categories_segments":[],"categories_sizes":[],"default_left":[0,0,0,0,0,0,0,0,0,0,0,0,0,0,0,0,0,0,0,0,0,0,0,0,0,0,0,0,0,0,0],"id":38,"left_children":[1,3,5,7,9,11,13,15,17,19,21,23,25,27,29,-1,-1,-1,-1,-1,-1,-1,-1,-1,-1,-1,-1,-1,-1,-1,-1],"loss_changes":[7.9527195E6,3.30609E5,3.5549615E6,2.163975E4,1.0409E5,1.9668202E6,6.44207E5,2.003E3,1.1747375E4,7.4872125E4,2.975693E4,8.9908544E5,1.3772254E6,5.687314E5,2.1497E5,0E0,0E0,0E0,0E0,0E0,0E0,0E0,0E0,0E0,0E0,0E0,0E0,0E0,0E0,0E0,0E0],"parents":[2147483647,0,0,1,1,2,2,3,3,4,4,5,5,6,6,7,7,8,8,9,9,10,10,11,11,12,12,13,13,14,14],"right_children":[2,4,6,8,10,12,14,16,18,20,22,24,26,28,30,-1,-1,-1,-1,-1,-1,-1,-1,-1,-1,-1,-1,-1,-1,-1,-1],"split_conditions":[2.1033211E-1,1.3837638E-1,9.9366254E-1,9.225092E-2,9.989028E-1,4.1112572E-1,6.2069875E-1,5.719557E-2,4.3663996E-1,9.424687E-1,9.506677E-2,9.934145E-1,2.9811103E-2,6.6412705E-1,9.9399316E-1,3.3392364E-1,3.1537622E-1,3.053286E-1,2.4665304E-1,1.8518554E-1,-9.301295E-2,-4.4852845E-2,-4.555478E-1,2.5667056E-1,-9.4177805E-2,1.8236604E-2,-5.6019723E-1,-2.2684243E-1,-8.615565E-1,-4.8074535E-1,-7.207369E-1],"split_indices":[42,42,8,42,4,10,9,42,16,10,10,8,5,0,8,0,0,0,0,0,0,0,0,0,0,0,0,0,0,0,0],"split_type":[0,0,0,0,0,0,0,0,0,0,0,0,0,0,0,0,0,0,0,0,0,0,0,0,0,0,0,0,0,0,0],"sum_hessian":[5.5102E4,2.5491E4,2.9611E4,1.6773E4,8.718E3,1.8659E4,1.0952E4,1.1189E4,5.584E3,8.426E3,2.92E2,1.1832E4,6.827E3,4.418E3,6.534E3,6.925E3,4.264E3,3.018E3,2.566E3,8.02E3,4.06E2,1.74E2,1.18E2,6.576E3,5.256E3,2.771E3,4.056E3,3.754E3,6.64E2,2.331E3,4.203E3],"tree_param":{"num_deleted":"0","num_feature":"43","num_nodes":"31","size_leaf_vector":"1"}},{"base_weights":[-3.1280976E-3,1.2501778E1,-1.1174423E1,1.5269356E1,7.6115284E0,-2.0527885E0,-2.3990383E1,1.5961473E1,1.3536574E1,1.2358406E1,4.8311543E0,6.5302944E0,-1.6729765E1,-8.156993E0,-2.8918343E1,3.257077E-1,3.0537415E-1,2.7691573E-1,1.1508485E-1,2.9897398E-1,-5.203052E-2,1.8933327E-1,-5.122807E-2,1.8980648E-1,-3.8144755E-1,5.644911E-2,-6.0565025E-1,-9.944631E-2,-5.0229245E-1,-4.5106655E-1,-6.832701E-1],"categories":[],"categories_nodes":[],"categories_segments":[],"categories_sizes":[],"default_left":[0,0,0,0,0,0,0,0,0,0,0,0,0,0,0,0,0,0,0,0,0,0,0,0,0,0,0,0,0,0,0],"id":39,"left_children":[1,3,5,7,9,11,13,15,17,19,21,23,25,27,29,-1,-1,-1,-1,-1,-1,-1,-1,-1,-1,-1,-1,-1,-1,-1,-1],"loss_changes":[7.6957125E6,3.5167675E5,3.4013465E6,1.968975E4,1.2394956E5,2.1415362E6,9.437265E5,2.41125E3,1.13363125E4,1.345035E5,2.0313233E5,8.13123E5,1.6623446E6,1.550303E5,3.07244E5,0E0,0E0,0E0,0E0,0E0,0E0,0E0,0E0,0E0,0E0,0E0,0E0,0E0,0E0,0E0,0E0],"parents":[2147483647,0,0,1,1,2,2,3,3,4,4,5,5,6,6,7,7,8,8,9,9,10,10,11,11,12,12,13,13,14,14],"right_children":[2,4,6,8,10,12,14,16,18,20,22,24,26,28,30,-1,-1,-1,-1,-1,-1,-1,-1,-1,-1,-1,-1,-1,-1,-1,-1],"split_conditions":[2.1402214E-1,1.3653137E-1,9.936074E-1,9.778598E-2,2.3910172E-1,4.14689E-1,4.9837664E-1,6.642067E-2,9.2775977E-1,9.410503E-1,3.6009824E-1,9.2775977E-1,6.412338E-2,3.213396E-1,9.9399316E-1,3.257077E-1,3.0537415E-1,2.7691573E-1,1.1508485E-1,2.9897398E-1,-5.203052E-2,1.8933327E-1,-5.122807E-2,1.8980648E-1,-3.8144755E-1,5.644911E-2,-6.0565025E-1,-9.944631E-2,-5.0229245E-1,-4.5106655E-1,-6.832701E-1],"split_indices":[42,42,8,42,2,10,6,42,6,10,10,6,6,5,8,0,0,0,0,0,0,0,0,0,0,0,0,0,0,0,0],"split_type":[0,0,0,0,0,0,0,0,0,0,0,0,0,0,0,0,0,0,0,0,0,0,0,0,0,0,0,0,0,0,0],"sum_hessian":[5.5087E4,2.5992E4,2.9095E4,1.6597E4,9.395E3,1.6998E4,1.2097E4,1.1854E4,4.743E3,3.469E3,5.926E3,1.0726E4,6.272E3,2.872E3,9.225E3,8.062E3,3.792E3,4.561E3,1.82E2,2.957E3,5.12E2,3.642E3,2.284E3,9.615E3,1.111E3,2.568E3,3.704E3,2.419E3,4.53E2,4.17E3,5.055E3],"tree_param":{"num_deleted":"0","num_feature":"43","num_nodes":"31","size_leaf_vector":"1"}},{"base_weights":[1.6586566E-2,1.2336624E1,-1.0818054E1,1.4914526E1,7.5335307E0,-1.9182175E0,-2.3462717E1,1.5631922E1,1.3181249E1,9.824254E0,2.004725E0,6.641492E0,-1.5637746E1,-7.4863124E0,-2.8406494E1,3.202033E-1,3.0100495E-1,2.8352928E-1,2.2129536E-1,2.670593E-1,9.3429744E-2,1.8286897E-1,-8.6912714E-2,1.919304E-1,-3.6675116E-1,1.7492774E-1,-5.0194097E-1,-2.052114E-2,-3.2173815E-1,-4.4358283E-1,-6.716222E-1],"categories":[],"categories_nodes":[],"categories_segments":[],"categories_sizes":[],"default_left":[0,0,0,0,0,0,0,0,0,0,0,0,0,0,0,0,0,0,0,0,0,0,0,0,0,0,0,0,0,0,0],"id":40,"left_children":[1,3,5,7,9,11,13,15,17,19,21,23,25,27,29,-1,-1,-1,-1,-1,-1,-1,-1,-1,-1,-1,-1,-1,-1,-1,-1],"loss_changes":[7.3721425E6,3.19873E5,3.3069215E6,2.070375E4,1.1431959E5,2.025626E6,9.585715E5,2.37475E3,1.02253125E4,1.15997375E5,1.1999211E5,7.84226E5,1.5287822E6,1.5944655E5,2.97973E5,0E0,0E0,0E0,0E0,0E0,0E0,0E0,0E0,0E0,0E0,0E0,0E0,0E0,0E0,0E0,0E0],"parents":[2147483647,0,0,1,1,2,2,3,3,4,4,5,5,6,6,7,7,8,8,9,9,10,10,11,11,12,12,13,13,14,14],"right_children":[2,4,6,8,10,12,14,16,18,20,22,24,26,28,30,-1,-1,-1,-1,-1,-1,-1,-1,-1,-1,-1,-1,-1,-1,-1,-1],"split_conditions":[2.1217713E-1,1.3837638E-1,9.936074E-1,9.778598E-2,9.934145E-1,4.1167924E-1,4.9837664E-1,5.904059E-2,4.828537E-1,4.052792E-1,6.737013E-1,9.2775977E-1,5.357143E-2,9.93938E-1,9.9399316E-1,3.202033E-1,3.0100495E-1,2.8352928E-1,2.2129536E-1,2.670593E-1,9.3429744E-2,1.8286897E-1,-8.6912714E-2,1.919304E-1,-3.6675116E-1,1.7492774E-1,-5.0194097E-1,-2.052114E-2,-3.2173815E-1,-4.4358283E-1,-6.716222E-1],"split_indices":[42,42,8,42,8,10,6,42,30,10,6,6,6,8,8,0,0,0,0,0,0,0,0,0,0,0,0,0,0,0,0],"split_type":[0,0,0,0,0,0,0,0,0,0,0,0,0,0,0,0,0,0,0,0,0,0,0,0,0,0,0,0,0,0,0],"sum_hessian":[5.5227E4,2.5842E4,2.9385E4,1.6815E4,9.027E3,1.7247E4,1.2138E4,1.1887E4,4.928E3,6.382E3,2.645E3,1.0621E4,6.626E3,2.869E3,9.269E3,7.187E3,4.7E3,3.348E3,1.58E3,3.787E3,2.595E3,1.245E3,1.4E3,9.498E3,1.123E3,1.852E3,4.774E3,1.639E3,1.23E3,4.209E3,5.06E3],"tree_param":{"num_deleted":"0","num_feature":"43","num_nodes":"31","size_leaf_vector":"1"}},{"base_weights":[5.7364814E-2,1.0128131E1,-1.2636509E1,1.3571417E1,2.0472975E0,-3.8723862E0,-2.4838797E1,1.4974823E1,1.0509209E1,5.60794E0,-7.6555977E0,4.6567783E0,-1.7587473E1,-1.0755509E1,-2.922499E1,3.0824283E-1,2.7417272E-1,2.2021438E-1,-1.458058E-2,3.033246E-1,5.034313E-2,-5.457477E-1,-2.0734899E-2,1.4531384E-1,-6.4929855E-1,1.5067908E-1,-5.3343916E-1,-6.551846E-2,-3.4822375E-1,-5.036901E-1,-7.271306E-1],"categories":[],"categories_nodes":[],"categories_segments":[],"categories_sizes":[],"default_left":[0,0,0,0,0,0,0,0,0,0,0,0,0,0,0,0,0,0,0,0,0,0,0,0,0,0,0,0,0,0,0],"id":41,"left_children":[1,3,5,7,9,11,13,15,17,19,21,23,25,27,29,-1,-1,-1,-1,-1,-1,-1,-1,-1,-1,-1,-1,-1,-1,-1,-1],"loss_changes":[7.06044E6,8.56887E5,2.612826E6,9.264775E4,3.179932E5,1.6636295E6,6.30564E5,7.98725E3,3.8277125E4,1.9887225E5,3.2105325E5,8.494904E5,1.2446584E6,1.2076319E5,2.234655E5,0E0,0E0,0E0,0E0,0E0,0E0,0E0,0E0,0E0,0E0,0E0,0E0,0E0,0E0,0E0,0E0],"parents":[2147483647,0,0,1,1,2,2,3,3,4,4,5,5,6,6,7,7,8,8,9,9,10,10,11,11,12,12,13,13,14,14],"right_children":[2,4,6,8,10,12,14,16,18,20,22,24,26,28,30,-1,-1,-1,-1,-1,-1,-1,-1,-1,-1,-1,-1,-1,-1,-1,-1],"split_conditions":[2.5276753E-1,1.7712177E-1,9.9366254E-1,1.2177122E-1,6.06655E-1,4.1001868E-1,5.008117E-1,9.0405904E-2,9.2775977E-1,3.6575064E-1,6.4360726E-1,9.334214E-1,5.357143E-2,9.93938E-1,9.943789E-1,3.0824283E-1,2.7417272E-1,2.2021438E-1,-1.458058E-2,3.033246E-1,5.034313E-2,-5.457477E-1,-2.0734899E-2,1.4531384E-1,-6.4929855E-1,1.5067908E-1,-5.3343916E-1,-6.551846E-2,-3.4822375E-1,-5.036901E-1,-7.271306E-1],"split_indices":[42,42,8,42,20,10,6,42,6,24,23,2,6,8,8,0,0,0,0,0,0,0,0,0,0,0,0,0,0,0,0],"split_type":[0,0,0,0,0,0,0,0,0,0,0,0,0,0,0,0,0,0,0,0,0,0,0,0,0,0,0,0,0,0,0],"sum_hessian":[5.5228E4,3.0796E4,2.4432E4,2.1594E4,9.202E3,1.422E4,1.0212E4,1.4805E4,6.789E3,6.732E3,2.47E3,8.768E3,5.452E3,2.426E3,7.786E3,1.0996E4,3.809E3,6.499E3,2.9E2,1.644E3,5.088E3,6.22E2,1.848E3,8.193E3,5.75E2,1.448E3,4.004E3,1.143E3,1.283E3,4.973E3,2.813E3],"tree_param":{"num_deleted":"0","num_feature":"43","num_nodes":"31","size_leaf_vector":"1"}},{"base_weights":[-3.417083E-2,5.8574233E0,-2.038249E1,6.808474E0,-3.1410686E1,1.4809202E0,-2.5361649E1,7.379302E0,-3.0465E1,-1.6040985E1,-4.1769047E1,5.0559936E0,-1.4053308E1,-1.7869997E1,-3.1294523E1,2.1094802E-1,-2.3012003E-3,-4.5663297E-1,-9.2742574E-1,-1.9404624E-1,-5.686569E-1,-6.267418E-1,-9.444745E-1,-5.0476193E-2,1.964566E-1,-1.0514693E-1,-3.8806874E-1,-2.3008429E-1,-6.764597E-1,-5.7844675E-1,-8.250139E-1],"categories":[],"categories_nodes":[],"categories_segments":[],"categories_sizes":[],"default_left":[0,0,0,0,0,0,0,0,0,0,0,0,0,0,0,0,0,0,0,0,0,0,0,0,0,0,0,0,0,0,0],"id":42,"left_children":[1,3,5,7,9,11,13,15,17,19,21,23,25,27,29,-1,-1,-1,-1,-1,-1,-1,-1,-1,-1,-1,-1,-1,-1,-1,-1],"loss_changes":[6.6090865E6,1.5154746E6,1.3475235E6,8.8721025E5,1.68724E5,1.27637266E5,4.475555E5,9.7488375E5,7.531331E4,3.3499766E4,3.4653625E4,6.751878E4,2.0133578E4,4.5233538E5,1.316575E5,0E0,0E0,0E0,0E0,0E0,0E0,0E0,0E0,0E0,0E0,0E0,0E0,0E0,0E0,0E0,0E0],"parents":[2147483647,0,0,1,1,2,2,3,3,4,4,5,5,6,6,7,7,8,8,9,9,10,10,11,11,12,12,13,13,14,14],"right_children":[2,4,6,8,10,12,14,16,18,20,22,24,26,28,30,-1,-1,-1,-1,-1,-1,-1,-1,-1,-1,-1,-1,-1,-1,-1,-1],"split_conditions":[9.9366254E-1,9.5651424E-1,4.8701298E-1,9.002392E-1,7.7922076E-2,3.1598616E-1,9.9399316E-1,4.0946516E-1,9.1630787E-1,9.642635E-1,8.022097E-2,3.7839895E-1,5.8003706E-1,6.635763E-1,7.9383117E-1,2.1094802E-1,-2.3012003E-3,-4.5663297E-1,-9.2742574E-1,-1.9404624E-1,-5.686569E-1,-6.267418E-1,-9.444745E-1,-5.0476193E-2,1.964566E-1,-1.0514693E-1,-3.8806874E-1,-2.3008429E-1,-6.764597E-1,-5.7844675E-1,-8.250139E-1],"split_indices":[8,10,6,5,6,5,8,10,5,10,2,10,9,0,6,0,0,0,0,0,0,0,0,0,0,0,0,0,0,0,0],"split_type":[0,0,0,0,0,0,0,0,0,0,0,0,0,0,0,0,0,0,0,0,0,0,0,0,0,0,0,0,0,0,0],"sum_hessian":[5.5127E4,4.275E4,1.2377E4,4.1687E4,1.063E3,2.296E3,1.0081E4,4.1059E4,6.28E2,4.29E2,6.34E2,1.867E3,4.29E2,4.457E3,5.624E3,2.8859E4,1.22E4,4.26E2,2.02E2,2.85E2,1.44E2,2.2E2,4.14E2,7.21E2,1.146E3,1.63E2,2.66E2,3.187E3,1.27E3,4.545E3,1.079E3],"tree_param":{"num_deleted":"0","num_feature":"43","num_nodes":"31","size_leaf_vector":"1"}},{"base_weights":[2.480723E-2,1.1901413E1,-1.0061951E1,1.4029854E1,6.94262E0,-3.1731906E0,-1.7650084E1,1.4697194E1,1.190038E1,7.702283E0,-9.74054E0,-8.966601E-1,-2.5302824E1,-1.1643107E1,-3.4174526E1,3.042184E-1,2.8047517E-1,2.7799532E-1,2.0834586E-1,2.8264216E-1,1.23767935E-1,-4.3546233E-1,-8.770572E-2,9.031916E-2,-2.0317122E-1,-6.867786E-1,-7.055398E-2,-9.585258E-2,-4.9542102E-1,-4.5622227E-1,-7.860091E-1],"categories":[],"categories_nodes":[],"categories_segments":[],"categories_sizes":[],"default_left":[0,0,0,0,0,0,0,0,0,0,0,0,0,0,0,0,0,0,0,0,0,0,0,0,0,0,0,0,0,0,0],"id":43,"left_children":[1,3,5,7,9,11,13,15,17,19,21,23,25,27,29,-1,-1,-1,-1,-1,-1,-1,-1,-1,-1,-1,-1,-1,-1,-1,-1],"loss_changes":[6.610727E6,2.6738525E5,1.5597658E6,2.502225E4,9.655903E4,7.880024E5,1.4090225E6,4.456E3,1.24160625E4,7.079566E4,2.1297775E4,7.1110594E5,2.8695512E5,9.365301E5,2.19572E5,0E0,0E0,0E0,0E0,0E0,0E0,0E0,0E0,0E0,0E0,0E0,0E0,0E0,0E0,0E0,0E0],"parents":[2147483647,0,0,1,1,2,2,3,3,4,4,5,5,6,6,7,7,8,8,9,9,10,10,11,11,12,12,13,13,14,14],"right_children":[2,4,6,8,10,12,14,16,18,20,22,24,26,28,30,-1,-1,-1,-1,-1,-1,-1,-1,-1,-1,-1,-1,-1,-1,-1,-1],"split_conditions":[2.0848708E-1,1.4575645E-1,5.8820784E-1,1.1070111E-1,9.301948E-1,6.7690545E-1,3.627458E-1,6.2730625E-2,4.2156067E-1,1.5930949E-1,9.5987093E-1,5.749565E-1,6.614025E-1,7.2239E-1,5.105519E-1,3.042184E-1,2.8047517E-1,2.7799532E-1,2.0834586E-1,2.8264216E-1,1.23767935E-1,-4.3546233E-1,-8.770572E-2,9.031916E-2,-2.0317122E-1,-6.867786E-1,-7.055398E-2,-9.585258E-2,-4.9542102E-1,-4.5622227E-1,-7.860091E-1],"split_indices":[42,42,20,42,6,23,24,42,16,10,7,36,18,23,6,0,0,0,0,0,0,0,0,0,0,0,0,0,0,0,0],"split_type":[0,0,0,0,0,0,0,0,0,0,0,0,0,0,0,0,0,0,0,0,0,0,0,0,0,0,0,0,0,0,0],"sum_hessian":[5.5181E4,2.5342E4,2.9839E4,1.773E4,7.612E3,1.5641E4,1.4198E4,1.3495E4,4.235E3,7.281E3,3.31E2,1.4183E4,1.458E3,1.0414E4,3.784E3,7.643E3,5.852E3,1.8E3,2.435E3,1.386E3,5.895E3,1.01E2,2.3E2,8.952E3,5.231E3,1.03E3,4.28E2,6.844E3,3.57E3,1.178E3,2.606E3],"tree_param":{"num_deleted":"0","num_feature":"43","num_nodes":"31","size_leaf_vector":"1"}},{"base_weights":[-4.837594E-2,5.4053984E0,-2.060625E1,6.312647E0,-3.0642414E1,5.6458676E-1,-2.5398943E1,6.8900685E0,-2.8833405E1,-1.5405413E1,-4.0728954E1,-8.572043E0,6.717384E0,-2.2193338E1,-3.614028E1,1.9694225E-1,-3.5754347E-3,-4.0644848E-1,-8.2959104E-1,-1.841281E-1,-5.430083E-1,-6.221789E-1,-9.106735E-1,-2.88596E-4,-3.6649397E-1,1.8159807E-1,-3.7746298E-1,-3.1665003E-1,-6.553264E-1,-8.61192E-1,-5.1527023E-1],"categories":[],"categories_nodes":[],"categories_segments":[],"categories_sizes":[],"default_left":[0,0,0,0,0,0,0,0,0,0,0,0,0,0,0,0,0,0,0,0,0,0,0,0,0,0,0,0,0,0,0],"id":44,"left_children":[1,3,5,7,9,11,13,15,17,19,21,23,25,27,29,-1,-1,-1,-1,-1,-1,-1,-1,-1,-1,-1,-1,-1,-1,-1,-1],"loss_changes":[6.1704135E6,1.4227011E6,1.170823E6,8.612561E5,1.6351194E5,1.1985352E5,3.231725E5,8.725715E5,7.299194E4,3.083879E4,2.825775E4,7.160794E4,7.719505E4,4.8699825E5,1.5405075E5,0E0,0E0,0E0,0E0,0E0,0E0,0E0,0E0,0E0,0E0,0E0,0E0,0E0,0E0,0E0,0E0],"parents":[2147483647,0,0,1,1,2,2,3,3,4,4,5,5,6,6,7,7,8,8,9,9,10,10,11,11,12,12,13,13,14,14],"right_children":[2,4,6,8,10,12,14,16,18,20,22,24,26,28,30,-1,-1,-1,-1,-1,-1,-1,-1,-1,-1,-1,-1,-1,-1,-1,-1],"split_conditions":[9.936901E-1,9.5651424E-1,4.8782468E-1,9.4724023E-1,7.7922076E-2,3.7528542E-1,7.8896105E-1,4.0946516E-1,9.47328E-1,9.642635E-1,8.022097E-2,5.7909924E-1,9.9443406E-1,9.943789E-1,9.5963675E-1,1.9694225E-1,-3.5754347E-3,-4.0644848E-1,-8.2959104E-1,-1.841281E-1,-5.430083E-1,-6.221789E-1,-9.106735E-1,-2.88596E-4,-3.6649397E-1,1.8159807E-1,-3.7746298E-1,-3.1665003E-1,-6.553264E-1,-8.61192E-1,-5.1527023E-1],"split_indices":[8,10,6,6,6,10,6,10,2,10,2,9,8,8,12,0,0,0,0,0,0,0,0,0,0,0,0,0,0,0,0],"split_type":[0,0,0,0,0,0,0,0,0,0,0,0,0,0,0,0,0,0,0,0,0,0,0,0,0,0,0,0,0,0,0],"sum_hessian":[5.5033E4,4.3495E4,1.1538E4,4.2428E4,1.067E3,2.13E3,9.408E3,4.1743E4,6.85E2,4.26E2,6.41E2,8.57E2,1.273E3,7.248E3,2.16E3,2.9431E4,1.2312E4,4.11E2,2.74E2,2.8E2,1.46E2,2.16E2,4.25E2,4.57E2,4E2,1.166E3,1.07E2,4.527E3,2.721E3,1.294E3,8.66E2],"tree_param":{"num_deleted":"0","num_feature":"43","num_nodes":"31","size_leaf_vector":"1"}},{"base_weights":[3.9389264E-2,9.327444E0,-1.2055755E1,1.2526479E1,1.0902822E0,-2.6949809E0,-1.7182411E1,1.3982062E1,9.133868E0,8.503342E0,-3.6058772E0,1.0309368E-1,-4.0094505E1,-2.9869644E1,-1.0161511E1,2.9016706E-1,2.532984E-1,1.9399977E-1,-5.4656733E-2,2.3045486E-1,-3.951829E-1,5.9425235E-2,-3.2564926E-1,